#include "weight.h"
//This file contains all the weights we need {MFCC, CNN}
//MEl filter banks weights
const float mel_filter_banks_coes_W [26][18] = 
{{1.        , 0.5       , 0.        , 0.        , 0.        , 0.        ,
  0.        , 0.        , 0.        , 0.        , 0.        , 0.        ,
  0.        , 0.        , 0.        , 0.        , 0.        , 0.        },
 {0.5       , 1.        , 0.5       , 0.        , 0.        , 0.        ,
  0.        , 0.        , 0.        , 0.        , 0.        , 0.        ,
  0.        , 0.        , 0.        , 0.        , 0.        , 0.        },
 {0.5       , 1.        , 0.5       , 0.        , 0.        , 0.        ,
  0.        , 0.        , 0.        , 0.        , 0.        , 0.        ,
  0.        , 0.        , 0.        , 0.        , 0.        , 0.        },
 {0.5       , 1.        , 0.5       , 0.        , 0.        , 0.        ,
  0.        , 0.        , 0.        , 0.        , 0.        , 0.        ,
  0.        , 0.        , 0.        , 0.        , 0.        , 0.        },
 {0.5       , 1.        , 0.5       , 0.        , 0.        , 0.        ,
  0.        , 0.        , 0.        , 0.        , 0.        , 0.        ,
  0.        , 0.        , 0.        , 0.        , 0.        , 0.        },
 {0.5       , 1.        , 0.66666669, 0.33333334, 0.        , 0.        ,
  0.        , 0.        , 0.        , 0.        , 0.        , 0.        ,
  0.        , 0.        , 0.        , 0.        , 0.        , 0.        },
 {0.33333334, 0.66666669, 1.        , 0.5       , 0.        , 0.        ,
  0.        , 0.        , 0.        , 0.        , 0.        , 0.        ,
  0.        , 0.        , 0.        , 0.        , 0.        , 0.        },
 {0.5       , 1.        , 0.66666669, 0.33333334, 0.        , 0.        ,
  0.        , 0.        , 0.        , 0.        , 0.        , 0.        ,
  0.        , 0.        , 0.        , 0.        , 0.        , 0.        },
 {0.33333334, 0.66666669, 1.        , 0.66666669, 0.33333334, 0.        ,
  0.        , 0.        , 0.        , 0.        , 0.        , 0.        ,
  0.        , 0.        , 0.        , 0.        , 0.        , 0.        },
 {0.33333334, 0.66666669, 1.        , 0.75      , 0.5       , 0.25      ,
  0.        , 0.        , 0.        , 0.        , 0.        , 0.        ,
  0.        , 0.        , 0.        , 0.        , 0.        , 0.        },
 {0.25      , 0.5       , 0.75      , 1.        , 0.66666669, 0.33333334,
  0.        , 0.        , 0.        , 0.        , 0.        , 0.        ,
  0.        , 0.        , 0.        , 0.        , 0.        , 0.        },
 {0.33333334, 0.66666669, 1.        , 0.75      , 0.5       , 0.25      ,
  0.        , 0.        , 0.        , 0.        , 0.        , 0.        ,
  0.        , 0.        , 0.        , 0.        , 0.        , 0.        },
 {0.25      , 0.5       , 0.75      , 1.        , 0.75      , 0.5       ,
  0.25      , 0.        , 0.        , 0.        , 0.        , 0.        ,
  0.        , 0.        , 0.        , 0.        , 0.        , 0.        },
 {0.25      , 0.5       , 0.75      , 1.        , 0.80000001, 0.60000002,
  0.40000001, 0.2       , 0.        , 0.        , 0.        , 0.        ,
  0.        , 0.        , 0.        , 0.        , 0.        , 0.        },
 {0.2       , 0.40000001, 0.60000002, 0.80000001, 1.        , 0.75      ,
  0.5       , 0.25      , 0.        , 0.        , 0.        , 0.        ,
  0.        , 0.        , 0.        , 0.        , 0.        , 0.        },
 {0.25      , 0.5       , 0.75      , 1.        , 0.80000001, 0.60000002,
  0.40000001, 0.2       , 0.        , 0.        , 0.        , 0.        ,
  0.        , 0.        , 0.        , 0.        , 0.        , 0.        },
 {0.2       , 0.40000001, 0.60000002, 0.80000001, 1.        , 0.83333331,
  0.66666669, 0.5       , 0.33333334, 0.16666667, 0.        , 0.        ,
  0.        , 0.        , 0.        , 0.        , 0.        , 0.        },
 {0.16666667, 0.33333334, 0.5       , 0.66666669, 0.83333331, 1.        ,
  0.83333331, 0.66666669, 0.5       , 0.33333334, 0.16666667, 0.        ,
  0.        , 0.        , 0.        , 0.        , 0.        , 0.        },
 {0.16666667, 0.33333334, 0.5       , 0.66666669, 0.83333331, 1.        ,
  0.83333331, 0.66666669, 0.5       , 0.33333334, 0.16666667, 0.        ,
  0.        , 0.        , 0.        , 0.        , 0.        , 0.        },
 {0.16666667, 0.33333334, 0.5       , 0.66666669, 0.83333331, 1.        ,
  0.85714287, 0.71428573, 0.5714286 , 0.42857143, 0.2857143 , 0.14285715,
  0.        , 0.        , 0.        , 0.        , 0.        , 0.        },
 {0.14285715, 0.2857143 , 0.42857143, 0.5714286 , 0.71428573, 0.85714287,
  1.        , 0.85714287, 0.71428573, 0.5714286 , 0.42857143, 0.2857143 ,
  0.14285715, 0.        , 0.        , 0.        , 0.        , 0.        },
 {0.14285715, 0.2857143 , 0.42857143, 0.5714286 , 0.71428573, 0.85714287,
  1.        , 0.875     , 0.75      , 0.625     , 0.5       , 0.375     ,
  0.25      , 0.125     , 0.        , 0.        , 0.        , 0.        },
 {0.125     , 0.25      , 0.375     , 0.5       , 0.625     , 0.75      ,
  0.875     , 1.        , 0.875     , 0.75      , 0.625     , 0.5       ,
  0.375     , 0.25      , 0.125     , 0.        , 0.        , 0.        },
 {0.125     , 0.25      , 0.375     , 0.5       , 0.625     , 0.75      ,
  0.875     , 1.        , 0.8888889 , 0.77777779, 0.66666669, 0.55555558,
  0.44444445, 0.33333334, 0.22222222, 0.11111111, 0.        , 0.        },
 {0.11111111, 0.22222222, 0.33333334, 0.44444445, 0.55555558, 0.66666669,
  0.77777779, 0.8888889 , 1.        , 0.8888889 , 0.77777779, 0.66666669,
  0.55555558, 0.44444445, 0.33333334, 0.22222222, 0.11111111, 0.        },
 {0.11111111, 0.22222222, 0.33333334, 0.44444445, 0.55555558, 0.66666669,
  0.77777779, 0.8888889 , 1.        , 0.89999998, 0.80000001, 0.69999999,
  0.60000002, 0.5       , 0.40000001, 0.30000001, 0.2       , 0.1       }};

//start point and the length
const uint32_t mel_filter_banks_start_len [26][2] = 
{{  1,   2},
 {  2,   3},
 {  4,   3},
 {  6,   3},
 {  8,   3},
 { 10,   4},
 { 12,   4},
 { 15,   4},
 { 17,   5},
 { 20,   6},
 { 23,   6},
 { 27,   6},
 { 30,   7},
 { 34,   8},
 { 38,   8},
 { 43,   8},
 { 47,  10},
 { 52,  11},
 { 58,  11},
 { 64,  12},
 { 70,  13},
 { 77,  14},
 { 84,  15},
 { 92,  16},
 {100,  17},
 {109,  18}};


//-------------------------------------------------------------------------------//
//                              DCT coe                                          //
//===============================================================================//
const float dct_coe [13][26] = 
{{ 2.0000000e+00,  2.0000000e+00,  2.0000000e+00,  2.0000000e+00,
   2.0000000e+00,  2.0000000e+00,  2.0000000e+00,  2.0000000e+00,
   2.0000000e+00,  2.0000000e+00,  2.0000000e+00,  2.0000000e+00,
   2.0000000e+00,  2.0000000e+00,  2.0000000e+00,  2.0000000e+00,
   2.0000000e+00,  2.0000000e+00,  2.0000000e+00,  2.0000000e+00,
   2.0000000e+00,  2.0000000e+00,  2.0000000e+00,  2.0000000e+00,
   2.0000000e+00,  2.0000000e+00},
 { 1.9963511e+00,  1.9672399e+00,  1.9094417e+00,  1.8237997e+00,
   1.7115625e+00,  1.5743669e+00,  1.4142135e+00,  1.2334378e+00,
   1.0346756e+00,  8.2082564e-01,  5.9500611e-01,  3.6051008e-01,
   1.2075699e-01, -1.2075699e-01, -3.6051008e-01, -5.9500611e-01,
  -8.2082564e-01, -1.0346756e+00, -1.2334378e+00, -1.4142135e+00,
  -1.5743669e+00, -1.7115625e+00, -1.8237997e+00, -1.9094417e+00,
  -1.9672399e+00, -1.9963511e+00},
 { 1.9854177e+00,  1.8700324e+00,  1.6459677e+00,  1.3262453e+00,
   9.2944634e-01,  4.7863132e-01, -3.2162452e-16, -4.7863132e-01,
  -9.2944634e-01, -1.3262453e+00, -1.6459677e+00, -1.8700324e+00,
  -1.9854177e+00, -1.9854177e+00, -1.8700324e+00, -1.6459677e+00,
  -1.3262453e+00, -9.2944634e-01, -4.7863132e-01, -3.6739403e-16,
   4.7863132e-01,  9.2944634e-01,  1.3262453e+00,  1.6459677e+00,
   1.8700324e+00,  1.9854177e+00},
 { 1.9672399e+00,  1.7115625e+00,  1.2334378e+00,  5.9500611e-01,
  -1.2075699e-01, -8.2082564e-01, -1.4142135e+00, -1.8237997e+00,
  -1.9963511e+00, -1.9094417e+00, -1.5743669e+00, -1.0346756e+00,
  -3.6051008e-01,  3.6051008e-01,  1.0346756e+00,  1.5743669e+00,
   1.9094417e+00,  1.9963511e+00,  1.8237997e+00,  1.4142135e+00,
   8.2082564e-01,  1.2075699e-01, -5.9500611e-01, -1.2334378e+00,
  -1.7115625e+00, -1.9672399e+00},
 { 1.9418837e+00,  1.4970216e+00,  7.0920980e-01, -2.4107336e-01,
  -1.1361295e+00, -1.7709121e+00, -2.0000000e+00, -1.7709121e+00,
  -1.1361295e+00, -2.4107336e-01,  7.0920980e-01,  1.4970216e+00,
   1.9418837e+00,  1.9418837e+00,  1.4970216e+00,  7.0920980e-01,
  -2.4107336e-01, -1.1361295e+00, -1.7709121e+00, -2.0000000e+00,
  -1.7709121e+00, -1.1361295e+00, -2.4107336e-01,  7.0920980e-01,
   1.4970216e+00,  1.9418837e+00},
 { 1.9094417e+00,  1.2334378e+00,  1.2075699e-01, -1.0346756e+00,
  -1.8237997e+00, -1.9672399e+00, -1.4142135e+00, -3.6051008e-01,
   8.2082564e-01,  1.7115625e+00,  1.9963511e+00,  1.5743669e+00,
   5.9500611e-01, -5.9500611e-01, -1.5743669e+00, -1.9963511e+00,
  -1.7115625e+00, -8.2082564e-01,  3.6051008e-01,  1.4142135e+00,
   1.9672399e+00,  1.8237997e+00,  1.0346756e+00, -1.2075699e-01,
  -1.2334378e+00, -1.9094417e+00},
 { 1.8700324e+00,  9.2944634e-01, -4.7863132e-01, -1.6459677e+00,
  -1.9854177e+00, -1.3262453e+00, -3.6739403e-16,  1.3262453e+00,
   1.9854177e+00,  1.6459677e+00,  4.7863132e-01, -9.2944634e-01,
  -1.8700324e+00, -1.8700324e+00, -9.2944634e-01,  4.7863132e-01,
   1.6459677e+00,  1.9854177e+00,  1.3262453e+00,  1.1021821e-15,
  -1.3262453e+00, -1.9854177e+00, -1.6459677e+00, -4.7863132e-01,
   9.2944634e-01,  1.8700324e+00},
 { 1.8237997e+00,  5.9500611e-01, -1.0346756e+00, -1.9672399e+00,
  -1.5743669e+00, -1.2075699e-01,  1.4142135e+00,  1.9963511e+00,
   1.2334378e+00, -3.6051008e-01, -1.7115625e+00, -1.9094417e+00,
  -8.2082564e-01,  8.2082564e-01,  1.9094417e+00,  1.7115625e+00,
   3.6051008e-01, -1.2334378e+00, -1.9963511e+00, -1.4142135e+00,
   1.2075699e-01,  1.5743669e+00,  1.9672399e+00,  1.0346756e+00,
  -5.9500611e-01, -1.8237997e+00},
 { 1.7709121e+00,  2.4107336e-01, -1.4970216e+00, -1.9418837e+00,
  -7.0920980e-01,  1.1361295e+00,  2.0000000e+00,  1.1361295e+00,
  -7.0920980e-01, -1.9418837e+00, -1.4970216e+00,  2.4107336e-01,
   1.7709121e+00,  1.7709121e+00,  2.4107336e-01, -1.4970216e+00,
  -1.9418837e+00, -7.0920980e-01,  1.1361295e+00,  2.0000000e+00,
   1.1361295e+00, -7.0920980e-01, -1.9418837e+00, -1.4970216e+00,
   2.4107336e-01,  1.7709121e+00},
 { 1.7115625e+00, -1.2075699e-01, -1.8237997e+00, -1.5743669e+00,
   3.6051008e-01,  1.9094417e+00,  1.4142135e+00, -5.9500611e-01,
  -1.9672399e+00, -1.2334378e+00,  8.2082564e-01,  1.9963511e+00,
   1.0346756e+00, -1.0346756e+00, -1.9963511e+00, -8.2082564e-01,
   1.2334378e+00,  1.9672399e+00,  5.9500611e-01, -1.4142135e+00,
  -1.9094417e+00, -3.6051008e-01,  1.5743669e+00,  1.8237997e+00,
   1.2075699e-01, -1.7115625e+00},
 { 1.6459677e+00, -4.7863132e-01, -1.9854177e+00, -9.2944634e-01,
   1.3262453e+00,  1.8700324e+00,  6.1232340e-16, -1.8700324e+00,
  -1.3262453e+00,  9.2944634e-01,  1.9854177e+00,  4.7863132e-01,
  -1.6459677e+00, -1.6459677e+00,  4.7863132e-01,  1.9854177e+00,
   9.2944634e-01, -1.3262453e+00, -1.8700324e+00, -5.3896838e-15,
   1.8700324e+00,  1.3262453e+00, -9.2944634e-01, -1.9854177e+00,
  -4.7863132e-01,  1.6459677e+00},
 { 1.5743669e+00, -8.2082564e-01, -1.9672399e+00, -1.2075699e-01,
   1.9094417e+00,  1.0346756e+00, -1.4142135e+00, -1.7115625e+00,
   5.9500611e-01,  1.9963511e+00,  3.6051008e-01, -1.8237997e+00,
  -1.2334378e+00,  1.2334378e+00,  1.8237997e+00, -3.6051008e-01,
  -1.9963511e+00, -5.9500611e-01,  1.7115625e+00,  1.4142135e+00,
  -1.0346756e+00, -1.9094417e+00,  1.2075699e-01,  1.9672399e+00,
   8.2082564e-01, -1.5743669e+00},
 { 1.4970216e+00, -1.1361295e+00, -1.7709121e+00,  7.0920980e-01,
   1.9418837e+00, -2.4107336e-01, -2.0000000e+00, -2.4107336e-01,
   1.9418837e+00,  7.0920980e-01, -1.7709121e+00, -1.1361295e+00,
   1.4970216e+00,  1.4970216e+00, -1.1361295e+00, -1.7709121e+00,
   7.0920980e-01,  1.9418837e+00, -2.4107336e-01, -2.0000000e+00,
  -2.4107336e-01,  1.9418837e+00,  7.0920980e-01, -1.7709121e+00,
  -1.1361295e+00,  1.4970216e+00}};


//CNN wight 
const uint32_t conv2d_W_shape   [4] = {4,3,3,1};
const uint32_t conv2d_1_W_shape [4] = {8,3,3,4};
const uint32_t dense_W_shape    [2] = {104, 64};
const uint32_t dense_1_W_shape  [2] = {64, 10};

const float conv2d_W [4][3][3][1] = 
{{{{-0.31042174},
   { 0.16114733},
   { 0.00769819}},

  {{ 0.07215337},
   { 0.11588093},
   {-0.20132676}},

  {{ 0.2750384 },
   {-0.09657051},
   {-0.15023921}}},


 {{{ 0.19223046},
   {-0.25670835},
   { 0.2037073 }},

  {{-0.0027732 },
   { 0.05784299},
   {-0.2796926 }},

  {{ 0.15666984},
   { 0.24479434},
   {-0.22866338}}},


 {{{ 0.01944111},
   { 0.09527589},
   { 0.02893899}},

  {{-0.09641709},
   {-0.10873366},
   {-0.21463381}},

  {{-0.06638733},
   { 0.19313316},
   {-0.25173125}}},


 {{{-0.22006178},
   {-0.02032343},
   {-0.15870927}},

  {{ 0.03853669},
   {-0.06255756},
   { 0.08421777}},

  {{ 0.10852826},
   {-0.17007172},
   { 0.16466898}}}};


const float conv2d_b [4] = 
{-0.4399542 ,  0.9270488 ,  0.26000807,  0.19923891};


const float conv2d_1_W [8][3][3][4] = 
{{{{ 7.60517418e-02,  1.51693523e-01,  1.26271427e-01,  8.73360485e-02},
   { 2.68447787e-01, -1.16793506e-01, -2.02027768e-01,  1.77725237e-02},
   { 1.05644586e-02, -8.73623118e-02, -7.21278554e-03, -2.04391196e-01}},

  {{-4.42963541e-02, -4.04720791e-02, -1.02636687e-01, -9.48480330e-03},
   { 3.10683042e-01,  4.92740683e-02, -5.30453958e-02,  6.72970563e-02},
   {-6.17181100e-02, -1.63791806e-01,  6.59375358e-03, -7.47239450e-03}},

  {{ 8.43656361e-02, -1.62409469e-02, -1.19664282e-01, -1.06569216e-01},
   { 5.96072711e-02,  1.42131343e-01,  7.92226288e-03,  1.95555493e-01},
   {-4.06150073e-02, -2.62294829e-01,  1.34172067e-01,  1.01068757e-01}}},


 {{{ 1.85699478e-01,  4.57764342e-02,  8.76963735e-02, -5.63443191e-02},
   { 4.68317010e-02,  7.27288201e-02,  8.45745131e-02, -1.81959882e-01},
   { 2.76740640e-01, -9.21317488e-02, -2.68998928e-02,  4.14228998e-02}},

  {{ 1.64130911e-01, -1.00145325e-01,  3.52833457e-02, -1.64663240e-01},
   { 2.94617619e-02, -5.46610802e-02,  2.78431717e-02, -1.00400724e-01},
   { 9.18829292e-02, -4.47484665e-02, -1.76544532e-01,  1.31471619e-01}},

  {{ 2.02569887e-01, -4.16169241e-02, -1.43931046e-01, -2.29415596e-01},
   { 3.63811031e-02, -3.66100401e-01, -1.31810773e-02, -2.60975584e-02},
   { 2.23663568e-01, -7.42401704e-02, -1.74094275e-01, -3.57363448e-02}}},


 {{{-7.00453147e-02, -1.86401159e-01, -2.62868162e-02,  1.05844840e-01},
   {-8.84690136e-02, -1.83147743e-01,  7.82232434e-02, -6.63663726e-03},
   {-6.19754568e-02, -1.12244427e-01, -6.39660805e-02, -1.66958228e-01}},

  {{-4.36388180e-02, -5.84451407e-02,  6.25696406e-02, -7.50437975e-02},
   {-3.07016354e-02, -6.36229385e-03, -7.21020177e-02, -4.71151918e-02},
   { 9.63016450e-02, -3.64446285e-04,  8.05523843e-02,  2.92790513e-02}},

  {{-4.25317921e-02,  2.80007452e-01, -4.50499691e-02,  1.08237199e-01},
   { 2.36673668e-01,  1.19830236e-01, -2.68349171e-01, -4.05029133e-02},
   {-3.44605260e-02, -1.46464020e-01,  1.21303648e-01, -1.96942538e-01}}},


 {{{-3.43116466e-04, -2.97538400e-01, -1.28879368e-01,  2.21430212e-01},
   {-8.50830525e-02, -6.28792942e-02,  1.18498370e-01, -1.75618380e-01},
   {-1.05696246e-01, -1.79619148e-01, -1.29290700e-01, -4.59458083e-02}},

  {{ 1.35878444e-01, -2.81925444e-02, -7.21465051e-03, -5.95267527e-02},
   {-8.07551667e-03, -2.29929104e-01, -1.84250787e-01,  1.12062767e-01},
   { 1.28600165e-01, -4.01593708e-02, -2.17015278e-02, -4.77872714e-02}},

  {{ 2.45336518e-01,  1.25548095e-01,  3.75016332e-02, -1.82050914e-01},
   { 5.17793335e-02, -1.34886503e-01, -2.18977019e-01,  1.97916284e-01},
   { 2.50699986e-02,  5.31017780e-02,  1.63413942e-01, -2.95563579e-01}}},


 {{{-1.32215381e-01,  4.03885543e-02,  2.34683603e-01,  2.24195560e-03},
   {-1.51043609e-01,  8.15994665e-02,  2.89670061e-02,  1.21954933e-01},
   {-6.43130913e-02,  2.34489501e-01,  1.50043428e-01, -1.46475360e-01}},

  {{-1.16975956e-01, -3.38005945e-02, -1.22254610e-01,  1.48794847e-02},
   {-6.83717728e-02,  1.05080456e-01,  4.01384644e-02, -1.83643594e-01},
   {-6.46813586e-02,  1.58587843e-01, -4.99214269e-02,  5.53106181e-02}},

  {{ 8.77921656e-02, -7.24564642e-02, -2.24190399e-01,  1.51496276e-01},
   {-7.92313218e-02,  6.14480078e-02,  1.02171846e-01,  1.72104090e-01},
   {-6.47605583e-02, -8.60408396e-02,  3.00727189e-02,  1.58575952e-01}}},


 {{{-9.20354277e-02, -1.41733453e-01,  3.71544666e-05,  8.06145072e-02},
   { 2.84074873e-01,  2.64148340e-02, -5.47873192e-02,  6.93143681e-02},
   { 1.65690750e-01, -1.30590126e-01, -8.48372132e-02, -9.58486870e-02}},

  {{-7.47349635e-02, -1.47474647e-01, -1.87655047e-01,  6.42997697e-02},
   { 2.12440029e-01, -6.26146002e-03, -3.83976959e-02, -2.15770781e-01},
   { 5.37531748e-02,  1.02905229e-01,  3.52343433e-02, -9.08767208e-02}},

  {{ 4.37075868e-02, -2.74197668e-01,  6.23284280e-02,  2.56023798e-02},
   {-5.17962016e-02, -1.65045366e-01, -1.93463489e-02, -3.10574230e-02},
   { 1.68344080e-01, -7.96633363e-02,  1.49638504e-01,  1.35730635e-02}}},


 {{{ 5.67089953e-02, -8.75705108e-02, -2.04182282e-01,  3.12731475e-01},
   {-2.57992387e-01, -1.64033517e-01,  9.10559297e-02,  1.53984979e-01},
   {-1.56408504e-01, -1.16199091e-01, -3.63746956e-02, -1.22448519e-01}},

  {{ 1.43928006e-02, -1.08084373e-01,  1.12080127e-01, -1.79057240e-01},
   {-3.98320109e-02,  7.67944753e-02, -1.86435893e-01,  6.53922930e-02},
   { 4.92448136e-02,  4.70792595e-03, -9.90904123e-02,  6.34312481e-02}},

  {{ 1.04876146e-01, -1.38287281e-03,  1.00849800e-01, -1.88506067e-01},
   { 2.13649541e-01,  1.69449881e-01,  3.62044424e-02, -1.45975962e-01},
   { 6.38697147e-02,  5.90689620e-03,  3.40306908e-02,  1.02155142e-01}}},


 {{{-9.97956321e-02,  4.74707037e-02, -5.76176532e-02,  3.79410982e-02},
   {-1.46757573e-01,  8.06321186e-05,  1.35434076e-01,  1.21199608e-01},
   {-2.65812755e-01, -1.57892525e-01,  7.22663850e-02,  1.65614039e-01}},

  {{ 1.16980247e-01,  1.93083435e-01,  5.03530130e-02, -7.82731548e-02},
   {-1.10357247e-01, -1.03243301e-02, -1.84167206e-01,  1.08923823e-01},
   {-6.21280856e-02,  3.24411169e-02,  1.31558865e-01, -1.18943997e-01}},

  {{ 9.89657864e-02,  3.40864249e-03,  4.99088354e-02, -3.15831035e-01},
   {-8.79637673e-02, -1.81120530e-01, -1.53174713e-01,  2.69751608e-01},
   { 1.14240885e-01, -9.32203829e-02,  7.53646046e-02, -6.97929934e-02}}}};


const float conv2d_1_b [8] = 
{-0.8665081 , -0.31053835, -0.24321808, -0.24023922, -0.1632536 ,
 -0.00896664, -0.23292759, -0.5778089 };


const float dense_W [104][64] = 
{{ 1.22020468e-01,  5.69294486e-03, -1.20033503e-01, -1.05442442e-01,
  -4.87297252e-02, -1.30458519e-01, -5.19958697e-02, -1.67348444e-01,
  -1.29431427e-01, -3.96809308e-03,  3.78189888e-03, -4.41013500e-02,
  -2.64146209e-01,  2.08640024e-01, -5.83687127e-02,  6.43254295e-02,
   2.10069448e-01,  2.01995745e-02,  6.27293885e-02,  9.29575786e-02,
   4.81195971e-02,  4.89210449e-02,  7.58038461e-02, -1.02297500e-01,
   3.98809090e-02,  1.84067950e-01, -1.55542344e-01, -2.30058551e-01,
  -5.76116182e-02,  2.34344736e-01,  1.84491146e-02, -1.94407329e-01,
  -8.49418864e-02,  8.98978412e-02,  3.01633067e-02,  1.75466478e-01,
  -1.43092778e-02,  1.41778022e-01, -6.10790178e-02, -9.58716124e-03,
   1.06507450e-01, -3.55853848e-02, -8.85071307e-02,  7.15924129e-02,
  -1.37686908e-01, -1.16303205e-01, -6.61458001e-02, -4.04462069e-02,
  -2.27101982e-01,  2.78126611e-03,  1.19435927e-02,  1.87028665e-04,
  -1.45380199e-01,  1.04647048e-01,  8.32822639e-03, -3.19124125e-02,
   1.05584852e-01,  1.04648769e-01, -1.64194569e-01,  1.99440271e-02,
  -4.84380126e-02, -5.84441125e-02, -1.26688778e-01,  1.00968808e-01},
 { 1.16968624e-01, -1.27183303e-01,  2.18986180e-02, -2.51324207e-01,
  -1.62723437e-01, -3.04749589e-02, -7.90563002e-02,  2.12686494e-01,
  -2.26316869e-01, -2.28191152e-01, -8.47427174e-02,  1.40689224e-01,
  -7.19419345e-02,  1.24458261e-01,  7.75452033e-02,  4.71642688e-02,
  -2.00487971e-01,  6.03511184e-02, -7.20949024e-02,  4.21163514e-02,
  -1.61669090e-01,  7.88274314e-03, -4.30183768e-01, -3.39412168e-02,
   1.14722401e-01, -2.98757758e-03,  4.44748662e-02, -2.02499330e-01,
  -2.41631180e-01, -8.09036344e-02, -5.67558818e-02, -2.08419621e-01,
  -2.75333896e-02, -2.26111963e-01, -3.94887204e-04, -4.10773717e-02,
   2.27477208e-01, -4.42091227e-02,  9.98700336e-02, -3.43923837e-01,
   2.00869724e-01, -1.41785860e-01, -3.61050926e-02, -8.81356001e-02,
  -2.52417028e-01,  3.92483111e-04, -1.53521091e-01, -1.31969750e-01,
   6.32554432e-03, -7.00099170e-02,  2.20055416e-01, -2.77953986e-02,
   1.17385805e-01, -1.93445720e-02, -2.35365704e-01,  8.10436010e-02,
   1.74176153e-02, -3.64620276e-02, -9.33427960e-02,  2.15941638e-01,
   5.47759533e-02, -7.64014199e-02, -1.88544288e-01, -5.16173467e-02},
 { 8.35338049e-03,  3.05722728e-02,  1.27389356e-01,  5.28768115e-02,
   7.79545382e-02,  7.24448711e-02,  4.52648625e-02, -2.23348409e-01,
  -1.47928949e-02, -8.75392091e-03,  4.78724297e-03,  9.55936089e-02,
  -1.10148579e-01, -4.73678000e-02, -8.12821090e-02, -1.88892007e-01,
  -5.69520108e-02,  5.33016981e-04, -1.94703072e-01, -5.62440977e-02,
   4.47513536e-02,  9.34966430e-02,  7.10019749e-03,  7.75625259e-02,
  -2.01343015e-01,  9.58049074e-02,  2.14075923e-01,  5.73141463e-02,
  -3.20422016e-02,  1.08969145e-01, -7.01435581e-02, -4.65483069e-02,
  -3.06334030e-02, -7.08301691e-03,  9.31982398e-02, -1.10346697e-01,
   1.61864385e-01,  1.91426203e-01, -3.58301103e-02, -1.64256024e-03,
   7.34539703e-02,  1.46265216e-02, -7.49366209e-02, -9.94070023e-02,
   1.36314303e-01,  4.59699053e-03,  1.46957114e-01,  3.42724659e-02,
   3.92631218e-02,  1.20966984e-02, -3.37277353e-02,  6.16098642e-02,
  -1.79602325e-01, -1.21889643e-01,  1.39906704e-01,  1.19349159e-01,
  -2.50859242e-02, -8.52573738e-02, -2.21997369e-02, -1.20203167e-01,
  -9.72643495e-02, -8.91120657e-02, -1.05547398e-01, -3.06112934e-02},
 {-9.40590128e-02, -2.06666753e-01, -1.09681621e-01, -3.43666494e-01,
   2.53681898e-01, -4.56462130e-02,  3.92922536e-02,  1.30073607e-01,
  -5.21029904e-02,  9.28186029e-02, -2.37561181e-01, -1.16418876e-01,
   7.97670335e-03, -2.40057856e-01, -3.76008376e-02,  8.75289738e-02,
  -1.15366705e-01, -1.57768130e-02,  3.61793265e-02, -1.31528191e-02,
   1.34661779e-01,  5.97476810e-02, -2.07756713e-01, -5.90892211e-02,
  -1.38136568e-02, -2.20819544e-02, -7.95634687e-02,  2.07368493e-01,
  -1.29180849e-01, -1.05323635e-01,  1.20248526e-01, -1.00664067e-04,
   2.53811721e-02,  8.96023214e-02, -4.99335043e-02,  3.35604176e-02,
   3.23596932e-02,  1.02788106e-01, -1.55311778e-01, -1.02216661e-01,
   4.33912612e-02,  1.29224285e-01,  4.44561988e-02, -2.12263912e-01,
  -6.22859150e-02, -9.53350142e-02, -4.77916561e-04, -2.30283961e-02,
  -2.25541398e-01, -7.99839944e-02, -4.78318939e-03, -1.06659435e-01,
  -2.31172163e-02, -1.48095451e-02, -9.58017409e-02,  1.99642822e-01,
  -5.61563447e-02, -2.70679817e-02, -8.81145373e-02, -1.66352987e-01,
  -4.76132892e-02, -9.69126150e-02, -4.47327383e-02,  5.71722165e-02},
 {-1.34224445e-01,  5.53807132e-02,  1.26003310e-01, -1.01675250e-01,
   1.81529056e-02, -3.27069983e-02, -1.93104118e-01, -9.77980271e-02,
   7.37227127e-02,  1.03653520e-01,  1.77366529e-02, -9.12417695e-02,
   9.47545171e-02,  1.29643530e-01, -5.16098775e-02,  7.61964843e-02,
   2.22474374e-02, -3.40384394e-02,  1.48729812e-02, -5.56224287e-02,
  -8.49983767e-02,  9.48963240e-02,  3.91333550e-02, -1.75839150e-03,
   2.85298582e-02,  8.81130621e-02, -1.97983310e-01, -4.66956533e-02,
   2.61097662e-02, -1.90516897e-02, -7.91003648e-03, -7.65020773e-02,
  -4.13073711e-02,  4.56591770e-02, -9.49658528e-02,  3.47825475e-02,
  -1.53612971e-01,  7.16174319e-02, -7.89434165e-02, -2.79960334e-02,
   1.04609244e-01, -1.17983907e-01, -7.62753487e-02,  2.68049892e-02,
   6.62231296e-02,  5.57223521e-02,  1.55205578e-01, -2.79610581e-03,
  -4.76721153e-02, -7.04806205e-03,  6.38665259e-03, -6.93331435e-02,
  -6.83106706e-02,  9.84511301e-02, -5.18400371e-02, -3.48481443e-03,
   1.23463087e-02,  1.49730638e-01, -1.04336858e-01, -7.98035786e-02,
  -2.23029852e-01,  1.21842767e-03,  1.03114367e-01,  1.00346826e-01},
 {-3.05782408e-02, -4.53913547e-02,  5.69007173e-02, -1.63553104e-01,
   1.29007265e-01,  1.46511823e-01,  3.38515751e-02, -1.17319999e-02,
  -3.17151129e-01, -9.43029672e-02,  1.37383476e-01,  1.42083257e-01,
   1.26474574e-01, -1.21701665e-01,  2.41430849e-02, -1.41995205e-02,
   7.19942078e-02, -1.89759031e-01, -1.17574058e-01,  1.10595532e-01,
  -1.66537762e-01, -7.18278587e-02, -8.85115787e-02,  7.76250586e-02,
  -1.76358998e-01,  8.38797241e-02, -1.36202097e-01,  3.60480621e-02,
   4.71385680e-02,  1.09968083e-02, -1.70475096e-01,  1.16836503e-01,
  -1.31603122e-01, -4.88196909e-02,  9.13430378e-02,  1.11449482e-02,
  -1.29626974e-01,  4.10324447e-02, -9.98277068e-02,  8.24775954e-04,
   2.05243289e-01,  9.82752889e-02,  1.52669430e-01, -1.93876901e-03,
  -3.57539579e-02,  1.18709125e-01,  1.36883408e-01,  1.37843028e-01,
   1.02829508e-01, -7.27477446e-02,  8.24717879e-02, -7.26365745e-02,
   3.85613143e-02,  4.73356918e-02, -1.93506390e-01, -8.31948500e-03,
  -6.97096884e-02, -5.99862337e-02,  5.77255059e-03, -8.99204537e-02,
   5.72188832e-02,  2.79895104e-02,  8.97360500e-03,  1.24468610e-01},
 {-9.87220481e-02,  2.31440112e-01, -5.54668577e-03, -1.56274095e-01,
  -7.18706846e-02, -9.31137055e-02,  2.48613283e-02,  1.58953577e-01,
  -9.45773721e-03, -2.47963786e-01, -6.90004900e-02, -2.59015232e-01,
  -1.81037396e-01,  7.54078180e-02, -2.47093779e-03,  4.30206303e-03,
   1.33989975e-01,  7.64276087e-02, -8.74066353e-02,  1.14765704e-01,
  -3.77301946e-02,  2.49553174e-02, -4.47997451e-03, -9.73417833e-02,
   5.17025962e-02, -2.47235775e-01, -1.93453014e-01,  3.36954296e-02,
   4.02312204e-02,  5.27272485e-02, -3.54036354e-02,  6.90867230e-02,
  -5.45525327e-02, -1.38150766e-01,  5.47843911e-02,  1.48762375e-01,
  -1.11187741e-01, -1.33518308e-01,  7.44992197e-02,  1.61272049e-01,
   3.28512155e-02,  9.55526903e-02, -3.79856452e-02,  1.81231797e-01,
   8.48302171e-02,  9.96583253e-02,  5.28126061e-02,  1.63044423e-01,
   1.12720774e-02,  3.64908874e-02,  2.13349219e-02, -8.99785683e-02,
  -1.38607830e-01, -5.64392610e-03, -2.96943665e-01,  5.59457717e-03,
  -8.62297863e-02, -1.16591513e-01, -4.80901897e-02, -5.63178211e-03,
  -1.12179771e-01,  9.40962657e-02, -9.52903554e-02, -1.98525563e-02},
 { 1.31031781e-01, -2.16695331e-02,  6.95954636e-02,  1.76032260e-01,
   4.02769074e-02,  3.29999328e-02, -3.76467071e-02, -1.66682377e-01,
  -1.78513117e-02, -1.10208526e-01, -6.43085390e-02,  5.71060404e-02,
  -1.05769075e-01,  8.71539935e-02, -7.20131993e-02, -1.86781734e-01,
  -1.58795804e-01,  2.17100158e-02,  2.03716066e-02, -7.89408460e-02,
   1.11480467e-01, -4.24998961e-02,  6.77988902e-02, -4.44938801e-02,
   1.76080025e-03, -6.09197188e-03, -1.53275415e-01, -8.67887735e-02,
   1.26007959e-01, -4.49948339e-03,  4.96289842e-02, -5.12840636e-02,
  -1.45706266e-01, -3.79679762e-02, -1.41134158e-01, -9.06485245e-02,
  -1.31505495e-02, -2.90066265e-02, -1.48071885e-01, -1.52210802e-01,
   1.39779285e-01, -6.66581541e-02, -1.00601509e-01, -8.22732300e-02,
  -3.78091373e-02,  1.29031777e-01, -1.58784539e-01, -2.01517254e-01,
  -9.48924795e-02,  9.73508060e-02, -7.35955536e-02,  1.62266299e-01,
  -9.77939293e-02, -9.35180709e-02,  4.22678441e-02,  1.41189665e-01,
  -2.17409730e-02, -9.98733789e-02, -5.24796322e-02,  1.20286755e-01,
   2.97168255e-01,  1.50961743e-03, -3.01127005e-02,  6.25834465e-02},
 { 1.51376292e-01,  6.29492253e-02,  5.59385866e-02, -2.93970294e-02,
  -1.36838555e-01,  4.18550745e-02,  1.45949751e-01, -6.16033636e-02,
   1.45616364e-02, -2.16541230e-03, -1.11211240e-01,  2.46231258e-02,
   3.34603302e-02,  9.96698439e-03, -3.36841419e-02,  5.15213758e-02,
   4.04138006e-02, -6.98858574e-02,  1.03753276e-01, -5.10950424e-02,
  -7.28643686e-02, -6.90395012e-02,  1.17397539e-01,  5.11685759e-02,
   1.49757177e-01,  4.72268946e-02,  2.95124892e-02,  4.08721976e-02,
  -6.15972951e-02,  7.33510703e-02,  2.18936037e-02, -1.06593139e-01,
   1.70334894e-02,  2.37048790e-01,  1.44549876e-01,  2.68141646e-02,
   1.28390780e-03, -1.76882476e-01, -4.92297113e-02, -1.03423581e-01,
  -5.33766001e-02, -4.26540188e-02, -1.46442249e-01, -1.79217793e-02,
   8.62458497e-02, -1.02117144e-01,  2.97621032e-03, -1.37852937e-01,
  -2.33520746e-01, -9.44750011e-02, -2.85514500e-02,  1.53945126e-02,
  -4.58604954e-02,  5.09508476e-02,  7.20649138e-02, -4.10312526e-02,
   6.86924979e-02,  9.58861876e-03,  4.39799614e-02,  3.89602035e-02,
  -9.13910940e-02, -1.72647238e-02,  1.32164866e-01, -5.40552810e-02},
 { 2.03523681e-01,  1.54751495e-01,  5.89602403e-02, -8.67488980e-02,
  -9.67496485e-02,  5.18696271e-02, -2.03191772e-01,  1.91629678e-01,
  -4.29124087e-02, -1.34216681e-01,  2.51152217e-02,  2.90727690e-02,
  -1.13553561e-01,  1.95792899e-01,  7.59747252e-02, -4.43517929e-03,
  -1.49162188e-01,  1.12949535e-02, -1.49060667e-01, -1.27360243e-02,
  -1.58366308e-01, -9.48113203e-02,  9.70967337e-02,  2.16224696e-03,
   9.92169902e-02, -5.56270853e-02,  7.97139779e-02,  6.56009614e-02,
  -3.89685333e-02, -5.63489720e-02,  5.50949201e-02,  4.38917652e-02,
   5.75068556e-02, -4.41996716e-02, -2.06125695e-02,  7.29596317e-02,
   2.11518228e-01, -1.01282850e-01,  7.64601827e-02,  6.81817979e-02,
   2.37800851e-01, -1.24326453e-01, -1.81319162e-01, -1.44513905e-01,
   1.00828111e-01,  6.93314988e-03, -1.19800813e-01, -7.67053738e-02,
   1.39874399e-01,  6.66559041e-02, -1.58111796e-01, -3.39066274e-02,
  -1.45911738e-01,  1.38178915e-01, -1.53537437e-01,  7.64623731e-02,
   2.25967824e-01, -9.07182470e-02,  3.63883041e-02,  2.03803688e-01,
   1.01049542e-01,  1.97435528e-01,  2.95883119e-02,  1.69559121e-01},
 { 1.03643082e-01, -9.72793400e-02,  1.47892728e-01, -8.02909732e-02,
   1.61899522e-01, -9.73269418e-02, -4.78365235e-02,  2.12870352e-02,
  -6.59103617e-02, -1.05434380e-01, -1.69160843e-01, -1.65059194e-02,
  -7.48443305e-02, -9.72317383e-02, -3.71468179e-02, -7.83355683e-02,
   1.05416417e-01,  7.83739313e-02, -1.81361526e-01,  3.57516669e-02,
   8.65746737e-02,  8.55598152e-02, -9.20844227e-02, -1.59176379e-01,
  -1.74671322e-01,  1.60345435e-01,  1.05173878e-01,  5.77930361e-02,
  -4.15633246e-03,  5.20949438e-03,  1.64340481e-01, -4.51472513e-02,
   1.19032040e-01,  1.05436422e-01, -1.70142025e-01,  2.01489460e-02,
   2.88459379e-02,  1.20659433e-01, -5.58358841e-02,  7.24028423e-02,
   1.05374500e-01,  8.67962018e-02,  1.07329875e-01,  1.43099790e-02,
   1.02037489e-01, -3.21315601e-02,  7.12087676e-02,  9.71319601e-02,
  -7.28855580e-02,  4.36953157e-02,  1.40923439e-02, -9.24994424e-02,
  -9.37770382e-02,  1.11854009e-01,  1.28103375e-01,  4.78763022e-02,
  -6.90198271e-03, -9.90829803e-03,  3.02733332e-02,  1.20601133e-01,
   4.44338508e-02,  1.04236444e-02,  1.38287875e-03, -3.26309837e-02},
 {-1.72710463e-01, -7.53324330e-02, -5.50733805e-02, -3.17142397e-01,
  -3.31580900e-02, -5.37806936e-02, -2.04169378e-01,  7.17613026e-02,
  -1.32676475e-02, -7.95630440e-02,  1.38056070e-01, -9.03484002e-02,
   3.02670956e-01,  4.95380536e-02,  3.05929184e-02,  9.57306772e-02,
  -1.87484145e-01,  1.99186839e-02,  1.48827455e-03,  3.42464969e-02,
   1.94180571e-02, -7.20945597e-02, -1.89430073e-01,  9.71071795e-02,
   8.39142799e-02, -1.56820029e-01, -1.29448712e-01,  1.19502014e-02,
  -1.59703359e-01, -1.86512396e-01,  1.33713931e-01, -1.16916500e-01,
  -8.24743882e-02, -4.44337204e-02, -2.57972986e-01, -4.78938967e-02,
  -6.36131689e-02, -1.36314467e-01, -4.41967417e-03,  7.17434362e-02,
   1.48141548e-01,  1.16367884e-01,  1.32292751e-02, -1.07211307e-01,
  -1.78319559e-01, -1.35948613e-01,  5.76090440e-02,  4.99101654e-02,
   1.19984262e-01, -2.19600033e-02,  1.55116050e-02,  5.35951518e-02,
  -3.45837772e-02, -4.02401239e-02, -1.02810584e-01, -3.24146077e-02,
   9.17488337e-02,  1.02326032e-02, -2.86243916e-01, -3.31887568e-04,
   6.08044537e-03,  1.19891919e-01,  2.41507646e-02,  1.67361274e-01},
 {-2.38494635e-01, -7.99346790e-02,  1.34003356e-01, -2.15581805e-01,
  -7.77474046e-02,  4.32173535e-02,  5.85295586e-03, -7.13521615e-02,
   6.39183307e-03,  8.49366486e-02, -2.37041414e-02, -1.25893191e-01,
  -6.30609244e-02,  2.19629422e-01,  1.09972335e-01,  1.03645176e-01,
  -5.60910851e-02, -1.50037095e-01, -4.20157313e-02,  2.70441566e-02,
  -1.19907640e-01, -1.14468686e-01,  1.72803961e-02, -5.41204326e-02,
  -3.17713283e-02,  5.20691052e-02, -9.78951380e-02,  4.63645197e-02,
   1.11010067e-01,  9.01041180e-02,  9.81232226e-02, -3.37724388e-02,
   3.15745436e-02,  1.01908736e-01,  6.04709536e-02, -5.04640676e-02,
  -8.66772532e-02, -7.72143994e-03,  8.58211592e-02,  7.88883716e-02,
   3.25269252e-02,  7.59934541e-04, -6.05700836e-02,  4.57000025e-02,
   7.58615807e-02, -2.47761179e-02, -6.00245483e-02, -1.70005217e-01,
   8.72210190e-02, -3.51580754e-02, -8.70049745e-03, -2.67566815e-02,
  -1.62695974e-01, -5.79059049e-02,  1.63142249e-01, -4.48034853e-02,
   5.28258737e-04, -1.13589196e-02, -1.79926872e-01, -2.20768765e-01,
   1.66408494e-02, -3.34916227e-02,  1.55962363e-01,  6.90249726e-02},
 {-9.11258236e-02,  5.88707300e-03, -1.40369743e-01,  8.23009759e-02,
   6.97447211e-02, -2.00695433e-02,  1.00568019e-01, -1.24967799e-01,
   2.25451495e-02,  1.60868526e-01,  1.66149497e-01, -3.56965289e-02,
   9.65428501e-02, -7.81557858e-02, -7.18929321e-02,  4.85379249e-02,
  -6.77217171e-02,  7.72888511e-02, -9.31227431e-02, -3.98250669e-02,
   9.16443691e-02,  1.59821719e-01, -1.02603383e-01,  5.24235927e-02,
   1.99082606e-02, -1.41077772e-01, -1.20258704e-01,  3.76088433e-02,
  -6.71602488e-02, -1.05276726e-01, -7.07131252e-02,  1.69237088e-02,
   2.75895838e-02,  1.00245036e-01, -6.10552244e-02, -1.24594882e-01,
  -3.46392579e-02, -1.27391860e-01,  1.08707592e-01, -1.39219418e-01,
  -3.05425059e-02, -3.93544212e-02, -7.57076666e-02,  4.30981480e-02,
  -1.32679939e-01, -2.59462334e-02, -9.17464644e-02, -6.28725439e-02,
   3.66912782e-02, -2.16887310e-01, -8.35420415e-02,  2.56771501e-02,
   4.21157777e-02,  7.03772977e-02,  1.40450507e-01, -1.39628589e-01,
   3.47245708e-02,  8.44151825e-02,  1.41997650e-01, -3.99955772e-02,
  -8.23433921e-02,  7.02577159e-02, -2.30620237e-04, -7.93637931e-02},
 { 8.38026479e-02, -1.02395490e-01, -1.15042336e-01,  9.52608585e-02,
  -3.92948911e-02, -1.79720327e-01, -2.41142754e-02,  2.92900592e-01,
   1.28082493e-02, -1.97031684e-02,  1.72390062e-02, -1.62416995e-01,
  -7.15748221e-02,  4.76656705e-02, -3.46602015e-02, -3.52332927e-03,
   1.12799607e-01,  1.53091988e-02,  7.45234117e-02, -6.70586824e-02,
   3.59182730e-02, -3.76002677e-02,  1.20341796e-02, -8.19915384e-02,
   5.10492213e-02, -1.54216349e-01, -9.33478326e-02, -9.43307057e-02,
  -2.46352367e-02,  1.03512935e-01, -3.78644802e-02,  4.80691232e-02,
  -4.90143290e-03, -1.98368117e-01,  1.81038141e-01, -6.79902583e-02,
   5.05076498e-02, -1.22933179e-01,  2.23714542e-02,  7.66291225e-04,
  -5.82261719e-02, -7.96042755e-03, -3.82951796e-02, -3.79304849e-02,
   1.64327156e-02,  9.35021490e-02,  1.28615405e-02,  7.28240982e-02,
   9.26642567e-02, -3.44738737e-02, -1.32680833e-01,  1.01991929e-01,
  -2.29717009e-02,  1.92521796e-01, -1.35179535e-02, -1.30311862e-01,
   4.59337533e-02, -4.35733348e-02, -5.15690669e-02, -1.21669143e-01,
  -7.24792155e-03, -7.48663023e-02, -8.47714096e-02,  3.98477949e-02},
 { 2.65118033e-02,  5.47826849e-02, -6.13504648e-02,  1.03225775e-01,
   3.86643670e-02, -1.09336272e-01,  1.45563185e-01,  1.01242393e-01,
  -1.26364157e-01, -5.90412244e-02,  3.47300805e-02, -9.95010659e-02,
   1.73735663e-01, -7.80059472e-02,  1.57217290e-02, -9.27723050e-02,
  -5.99477030e-02, -1.38657883e-01,  6.49487302e-02, -1.71095386e-01,
  -4.20910604e-02, -1.15094237e-01, -1.55108437e-01,  2.13128611e-01,
   3.38048190e-02, -7.96122327e-02,  1.72938943e-01, -5.15329931e-03,
  -4.78496067e-02, -1.29603893e-01,  1.21123210e-01, -1.86997145e-01,
  -8.55582133e-02,  1.54231161e-01, -3.30495499e-02,  1.13788456e-01,
   1.66917339e-01,  9.78937559e-03, -2.40002796e-01,  9.57598537e-02,
  -9.51295123e-02, -4.23252583e-02,  7.93535933e-02,  8.44715536e-02,
  -1.58400893e-01, -9.20345634e-02,  4.52314271e-03,  8.19556937e-02,
   5.16720265e-02, -7.11171236e-03,  1.07111793e-03,  1.19479038e-01,
   2.61401292e-02, -1.30157873e-01, -1.04291193e-01,  1.38746137e-02,
   9.34788510e-02, -1.85324937e-01,  5.20281717e-02, -1.36821210e-01,
   6.10481687e-02,  6.65437505e-02, -1.17099024e-01,  2.53678411e-01},
 { 2.23187268e-01,  7.86089152e-02,  1.35340422e-01, -5.90107962e-02,
  -1.20494261e-01, -5.55127580e-03, -1.07787050e-01, -5.77187724e-02,
  -1.09917009e-02, -8.40415880e-02,  1.16944544e-01,  1.06142923e-01,
   1.91246420e-01, -2.32447714e-01, -9.22779292e-02,  1.12998150e-02,
   6.09677024e-02, -2.45264899e-02, -6.06506132e-03,  2.36446887e-01,
  -1.00461794e-02,  2.48217955e-02,  3.83647829e-02,  9.64995474e-02,
   1.83427170e-01,  9.19603035e-02,  8.89692158e-02, -1.95191000e-02,
  -7.97628704e-03,  2.08941728e-01, -3.73818167e-02, -1.69487465e-02,
  -8.51830542e-02,  1.78041086e-01,  8.80356412e-03, -6.10840693e-02,
   3.92336510e-02,  8.99222046e-02,  2.49441667e-03,  6.13596430e-03,
   1.04953855e-01, -2.77612004e-02, -1.12532482e-01, -1.73287719e-01,
   7.92542398e-02,  3.46204899e-02, -2.44243983e-02,  5.16003370e-02,
  -8.80236030e-02,  1.95041243e-02, -1.28005326e-01, -1.00084096e-01,
  -1.13419499e-02,  2.25601178e-02, -1.52269244e-01, -6.41137734e-02,
   3.86005500e-03, -1.09724492e-01,  1.56787243e-02, -4.52702381e-02,
  -1.70056581e-01, -2.97089648e-02,  2.56503582e-01, -6.02333136e-02},
 { 2.34384075e-01,  5.28722368e-02, -7.94820711e-02,  1.59951329e-01,
   8.47809240e-02,  2.76978929e-02,  4.83039431e-02,  5.39674200e-02,
   6.05988242e-02, -1.66768834e-01, -7.35340640e-02, -8.95424485e-02,
  -1.80521280e-01, -2.19825044e-01,  3.47342603e-02, -8.74148160e-02,
   7.61784539e-02,  1.34396657e-01, -1.28330857e-01, -1.48562580e-01,
  -1.81791276e-01, -1.80804297e-01,  3.28305781e-01, -1.76740497e-01,
   3.48200984e-02, -9.60607231e-02,  2.47994624e-02, -2.33109538e-02,
  -2.00289071e-01,  1.64217744e-02,  1.37053788e-01, -2.21576348e-01,
   8.08286071e-02,  8.13085660e-02, -1.88772529e-01, -8.26648995e-02,
   2.52802879e-01,  6.06459193e-03,  2.10310165e-02,  1.21130653e-01,
   1.39288619e-01, -1.09319992e-01, -7.81517997e-02, -4.36426513e-02,
  -5.20434119e-02, -1.37530327e-01,  2.49405880e-03, -7.53281042e-02,
   2.48388797e-02, -4.27761860e-02, -1.27448350e-01,  1.56649351e-02,
   1.94501415e-01,  1.00941144e-01,  8.85820165e-02, -5.45774363e-02,
   9.75506157e-02, -3.24954167e-02, -1.00901127e-02,  1.79426000e-01,
   1.13074556e-01, -2.02196445e-02,  2.00513616e-01, -6.71221539e-02},
 {-3.46870832e-02, -8.82184952e-02,  3.36080082e-02, -8.99205729e-02,
   2.23532006e-01,  7.70910233e-02,  4.52723633e-03,  4.38064598e-02,
  -6.70354590e-02,  1.27644509e-01, -1.31561503e-01, -1.15443185e-01,
   6.97000176e-02, -6.37535751e-02, -5.49208038e-02,  2.57228334e-02,
  -9.78241190e-02, -6.21971209e-04, -8.57270956e-02,  1.27105117e-01,
   8.00117329e-02, -1.09712087e-01, -5.93203120e-03,  7.69421309e-02,
  -2.32879460e-01, -3.20658609e-02, -3.46873254e-02, -7.38329589e-02,
  -1.05464809e-01, -8.96988362e-02,  7.80695379e-02, -4.87062931e-02,
  -1.36870921e-01,  6.55219844e-03,  6.82970434e-02, -1.47756245e-02,
  -2.78112888e-01, -6.21149540e-02, -4.37563471e-02,  7.66228288e-02,
   2.74511218e-01,  6.42907023e-02,  2.41304617e-02, -1.60925426e-02,
   2.09044263e-01,  1.19604804e-01,  1.98276401e-01, -1.39405847e-01,
   9.46052969e-02, -9.73940641e-02, -9.10538360e-02, -4.56655025e-02,
  -1.61195219e-01, -5.13452105e-03,  1.51648866e-02,  5.44270352e-02,
  -1.39416121e-02,  1.58428282e-01, -1.39428824e-02,  2.29320321e-02,
   5.19712977e-02,  3.52783538e-02,  1.25255823e-01, -1.34701595e-01},
 {-7.67321466e-03, -7.83930123e-02, -8.94265026e-02, -8.07316154e-02,
  -1.16175398e-01, -1.64950415e-01,  1.87491074e-01, -8.36919695e-02,
   8.38171318e-02, -1.14852495e-01, -8.55271965e-02, -2.71306839e-02,
  -2.48480886e-02, -1.48624182e-01, -1.99793987e-02,  7.76385441e-02,
   1.66635271e-02,  2.05967668e-02, -1.28532097e-01, -1.79214939e-01,
   7.85712078e-02,  8.11334625e-02,  1.00953251e-01, -6.11272175e-03,
   3.78729701e-02, -1.68232515e-01, -1.24417357e-01,  7.77857304e-02,
   4.98461574e-02, -5.41099235e-02,  1.68487862e-01,  1.58205163e-02,
  -1.06481425e-01, -6.14622459e-02, -1.89089641e-01, -1.63287207e-01,
  -4.98957187e-02, -1.58576980e-01,  7.54595101e-02, -9.41791479e-03,
  -1.96606562e-01,  1.15292139e-01, -1.42218456e-01, -1.65324390e-01,
  -2.64360029e-02, -7.65191689e-02, -1.83913454e-01, -1.54405072e-01,
  -2.13758543e-01,  6.13012444e-03, -2.06183329e-01,  1.58607557e-01,
  -2.93731958e-01, -3.43509614e-02,  2.54116088e-01, -3.49930227e-02,
  -4.95388843e-02,  1.42007425e-01, -4.42848690e-02, -2.61924490e-02,
   6.78939894e-02, -1.21440828e-01,  1.07163610e-02,  1.29749728e-02},
 {-2.54735321e-01, -9.28891152e-02,  2.51491331e-02, -1.18650451e-01,
  -3.19613926e-02, -1.52794361e-01,  1.32929822e-02, -1.02412343e-01,
   3.46830040e-02, -3.07371337e-02,  2.32290905e-02, -8.27405378e-02,
  -2.88440198e-01,  2.46114403e-01,  1.76687211e-01, -2.27576755e-02,
  -6.16713315e-02,  1.28474206e-01,  1.46117449e-01,  3.97053780e-03,
  -8.01882371e-02, -7.60387257e-02,  1.39696389e-01, -6.49350435e-02,
  -2.08089948e-02, -5.47632165e-02,  8.22804943e-02, -3.45380493e-02,
   2.02304631e-01, -1.01108193e-01,  7.61445537e-02, -9.61075798e-02,
   1.16266787e-01,  8.12144503e-02,  6.37538061e-02, -1.03937574e-01,
   1.20320961e-01, -5.67109212e-02,  3.65238301e-02,  1.25141544e-02,
  -2.13700682e-02, -6.48009554e-02, -2.61904337e-02,  1.54105291e-01,
   7.04597682e-03,  1.65486149e-02,  3.03873215e-02, -2.03773640e-02,
   2.31289398e-02,  5.13903759e-02,  7.93321505e-02,  2.70147808e-02,
  -1.64336786e-01,  1.22497052e-01,  9.52908918e-02,  1.14647916e-03,
  -7.92345405e-02, -1.75559288e-03, -1.22735336e-01,  1.24909550e-01,
  -7.92453066e-03, -6.23493874e-03, -6.90471530e-02,  5.73956072e-02},
 { 6.40359968e-02,  6.80724308e-02,  3.04564089e-02, -2.00996026e-02,
   2.80563589e-02, -1.87027365e-01, -2.32212413e-02,  8.40585977e-02,
   7.52222016e-02,  3.39794494e-02,  6.02732971e-02,  3.28819267e-02,
  -7.87677392e-02, -5.59152430e-03,  8.67867470e-02,  1.91786245e-01,
   3.89503911e-02, -1.12901352e-01, -1.87528595e-01, -1.55575320e-01,
   1.02195196e-01,  9.57696810e-02, -1.60870478e-01, -1.62859440e-01,
  -1.24946743e-01,  1.14560999e-01, -2.11622827e-02, -1.94217250e-01,
   9.12340954e-02,  1.26761766e-02,  1.81872919e-02,  1.79719314e-01,
   8.56749341e-02, -7.26932362e-02,  1.49186417e-01,  5.16203977e-02,
  -1.05531357e-01,  8.12540650e-02,  8.92442688e-02,  1.03403807e-01,
  -9.22712591e-03,  3.64803113e-02, -1.88172590e-02, -6.01293333e-02,
   6.97140396e-02,  2.51949839e-02, -2.10715365e-02,  9.75834206e-02,
  -1.88922405e-01,  1.04524091e-01, -1.68211818e-01,  1.14094473e-01,
   7.57432580e-02, -9.08488929e-02,  1.24688566e-01,  3.64888459e-02,
   1.29273042e-01,  3.30543630e-02,  2.65129000e-01, -3.05920243e-02,
   1.78217590e-01,  5.80564290e-02, -7.20677376e-02, -8.24360102e-02},
 { 6.19544312e-02,  5.27870022e-02, -1.07000567e-01, -3.52427289e-02,
   1.34436265e-02,  4.71284240e-02, -1.89461127e-01,  9.86413583e-02,
   5.14819063e-02,  1.35763720e-01,  1.84418723e-01, -2.08579935e-02,
   3.14749964e-02, -1.44366659e-02, -1.80313867e-02, -9.02516097e-02,
  -2.32296750e-01, -1.17639406e-02,  1.75068215e-01, -2.48779520e-01,
   1.01616874e-01, -1.21735176e-02,  2.03858674e-01, -1.89838618e-01,
   1.28784329e-01, -1.47546440e-01, -9.85461473e-02, -1.48858503e-02,
  -1.58427749e-02,  6.63181022e-02, -1.17190853e-01,  1.09069377e-01,
   5.48513047e-02, -1.19510606e-01, -6.09515272e-02,  2.12247111e-02,
  -7.16502443e-02, -1.70317329e-02,  4.41295020e-02,  4.12742458e-02,
  -8.99624228e-02,  5.00603877e-02,  1.02932386e-01,  1.37300670e-01,
  -1.39528634e-02,  1.36104450e-01, -8.46434664e-03,  6.12777583e-02,
   9.51044187e-02,  3.23022567e-02, -6.91264272e-02,  1.32052436e-01,
  -1.77601725e-01,  3.77005115e-02, -1.33794054e-01,  4.49511409e-02,
  -1.93550233e-02, -7.36590549e-02,  1.43138953e-02, -5.57476804e-02,
   9.90610644e-02, -2.85038501e-02, -7.43261203e-02,  1.65779829e-01},
 { 3.93855944e-02,  8.97785276e-02, -7.11989552e-02,  9.11410823e-02,
  -1.43917486e-01,  4.35688011e-02,  1.82245538e-01,  8.17101374e-02,
   9.51667652e-02, -1.97191328e-01, -9.80960950e-02, -5.08338399e-02,
   7.18255788e-02,  7.15763345e-02,  7.80133307e-02,  4.65095825e-02,
   1.52984858e-01,  2.67975535e-02, -5.47814816e-02,  7.16402754e-03,
   1.44203901e-01, -6.21684943e-04, -1.88103378e-01,  1.19176626e-01,
  -6.60596490e-02, -6.52682707e-02,  1.33729115e-01,  8.27405676e-02,
  -1.49204314e-01, -1.54350474e-01,  1.08435519e-01, -3.54543291e-02,
  -1.26212165e-01,  8.76417682e-02,  8.97010788e-03,  2.02598080e-01,
   1.74669579e-01,  4.39427420e-02,  4.05829400e-02,  1.55979991e-01,
  -3.19281399e-01, -1.13723710e-01,  3.68358940e-02,  3.49768624e-02,
  -6.66821152e-02, -2.17400044e-01,  4.70015332e-02, -2.02049222e-02,
   6.72854558e-02, -1.48405395e-02,  1.40954971e-01,  2.15235680e-01,
  -2.45604813e-02, -1.70660332e-01,  1.73909649e-01, -3.15998733e-01,
  -9.38015580e-02, -5.27070127e-02, -2.10851341e-01,  8.13104883e-02,
  -1.77076429e-01, -1.42960206e-01, -8.26165527e-02,  2.07524955e-01},
 { 1.13398530e-01, -6.81067351e-03, -6.06091172e-02, -1.89756602e-02,
  -1.00809462e-01, -1.17751889e-01,  7.63892829e-02,  1.58442810e-01,
   8.65312945e-03,  7.44857043e-02, -6.14048503e-02, -9.27584320e-02,
   1.37674436e-01, -2.54458845e-01, -1.87287927e-02, -2.25155503e-01,
  -4.40863930e-02,  2.48747408e-01,  3.16953287e-02,  4.70316149e-02,
   2.87649618e-03, -1.44346565e-01, -1.46962225e-01, -9.51793194e-02,
   1.86213151e-01,  7.52191395e-02,  2.51532316e-01, -6.14779517e-02,
  -2.75342762e-02,  1.89895108e-01, -1.06169293e-02, -8.85065645e-02,
   1.07395619e-01, -2.68752500e-02, -1.50161544e-02, -1.67061120e-01,
  -4.20712866e-02, -2.55254656e-01,  1.15645654e-01, -7.47912005e-02,
   7.99348950e-02, -5.93191199e-02,  1.93444759e-01, -1.69249699e-01,
   9.61432829e-02,  5.32079041e-02,  5.30609600e-02, -1.15908109e-01,
  -2.90439054e-02, -1.44591093e-01,  1.51775539e-01, -6.80996571e-03,
  -7.86435381e-02, -4.47819903e-02,  8.68969187e-02, -7.03400895e-02,
  -2.10148115e-02, -6.39167726e-02,  5.47351688e-02, -1.70018673e-01,
   8.48034397e-02,  1.64909303e-01, -1.74492747e-01, -6.90793097e-02},
 { 1.74494565e-01,  1.48697406e-01, -8.20743479e-03, -2.10855782e-01,
   1.83729902e-01, -6.14794493e-02,  1.37122601e-01,  5.82203306e-02,
   7.62828588e-02,  1.15368739e-01, -2.13601202e-01,  3.89776216e-03,
  -1.69870138e-01, -2.04238504e-01,  1.33262753e-01,  3.11578996e-02,
   1.95577309e-01, -1.66028917e-01, -3.50676440e-02, -8.73685926e-02,
  -1.84554368e-01,  2.12585926e-02,  7.05098957e-02, -2.31641293e-01,
   5.99087542e-03, -1.98045164e-01,  1.16014443e-01,  1.17545277e-01,
  -1.84069857e-01,  8.71249288e-02, -4.98837270e-02, -2.30353966e-01,
   1.15023278e-01,  2.40167856e-01, -1.11488469e-01,  1.04285456e-01,
   2.52147347e-01, -2.50427816e-02, -1.25781342e-01, -2.02849805e-02,
   2.03135356e-01, -9.14271250e-02,  1.07268371e-01, -1.94117557e-02,
  -9.07083675e-02,  5.93792684e-02, -2.09874734e-02,  5.36014922e-02,
  -5.44962250e-02, -4.73788716e-02,  1.65256243e-02,  4.18962650e-02,
   1.36081547e-01,  9.57297385e-02,  7.36468211e-02,  5.88182770e-02,
   4.78144847e-02,  6.54052943e-02,  7.61437863e-02, -3.82285744e-01,
  -1.08340196e-02, -2.03590140e-01, -1.12078683e-02,  5.56438752e-02},
 {-3.24886322e-01,  1.21326506e-01, -4.46647108e-02, -9.30070505e-02,
  -2.33789444e-01,  4.70299087e-02, -5.37950499e-03,  1.43801019e-01,
  -1.68027848e-01,  1.24988578e-01, -1.05411813e-01, -1.39478832e-01,
   7.12236613e-02, -1.82763293e-01, -9.51917320e-02,  2.48594359e-01,
   8.56467187e-02, -6.51178956e-02, -1.70234859e-01, -3.48429731e-03,
   2.32968237e-02, -2.02847004e-01, -9.56527144e-02,  1.05839111e-02,
  -1.46924615e-01, -1.29073188e-02, -1.65762424e-01, -1.30832493e-01,
   1.34234264e-01,  1.04962520e-01, -1.29085794e-01, -7.36099016e-03,
  -1.20160552e-02,  4.28613611e-02,  1.05291367e-01,  2.08549365e-01,
  -1.00531951e-01,  9.32718813e-02, -1.09558441e-01, -2.49807183e-02,
   9.06045660e-02, -3.74428369e-02, -4.61539663e-02, -1.30833775e-01,
   1.74293727e-01, -1.11332387e-01, -9.16324928e-02,  4.30299109e-03,
  -2.58298695e-01,  4.84150387e-02,  7.80453831e-02,  2.24714473e-01,
   2.09166873e-02, -1.82008035e-02,  3.11221499e-02,  7.46421665e-02,
   1.86892167e-01, -1.25344709e-01, -9.18743853e-03,  1.04636081e-01,
   5.69681823e-02,  7.32725337e-02, -4.58485447e-02, -1.63292378e-01},
 {-9.49233621e-02,  5.53915314e-02, -1.54753268e-01, -1.10062495e-01,
  -2.68867202e-02, -1.35901496e-01, -9.45266411e-02, -5.56534827e-02,
   9.35737416e-02,  1.00243792e-01, -1.39559293e-02,  1.63126469e-01,
  -7.34493583e-02, -1.69647098e-01, -4.82273586e-02,  3.60283814e-02,
   1.37453064e-01, -2.23067895e-01, -1.18156448e-01, -9.02738981e-03,
   4.29700166e-02, -1.36318535e-01,  9.47826132e-02,  8.88933092e-02,
  -3.80094871e-02, -2.26249039e-01, -1.29734918e-01,  8.70508850e-02,
  -2.72627234e-01, -1.92282870e-01,  8.33355337e-02, -1.72329143e-01,
  -1.19636841e-01, -1.71248138e-01, -6.08578734e-02,  5.27992100e-03,
  -1.71644971e-01, -1.65436533e-03,  1.18553579e-01,  4.40743268e-02,
  -7.85265118e-02, -2.89205071e-02, -9.02460441e-02, -2.07073674e-01,
  -1.08721368e-01, -1.31730810e-01, -1.55139044e-01,  1.24787949e-01,
   4.36039791e-02, -1.55430302e-01,  8.00762400e-02, -6.90612048e-02,
  -4.31360342e-02,  1.02510303e-01, -3.82615626e-02,  1.73150927e-01,
  -2.23790944e-01,  1.47296771e-01, -9.62923840e-03, -1.01155110e-01,
   8.70179683e-02, -1.33807408e-02,  1.21329902e-02, -1.96883343e-02},
 {-2.14975789e-01,  1.42218769e-01, -2.26233065e-01, -5.15777841e-02,
   2.17801929e-02, -1.10321872e-01, -3.32928449e-02, -1.89958423e-01,
   8.75104126e-03, -8.83590207e-02, -1.07995838e-01,  6.26695529e-02,
  -3.21827047e-02,  2.65262462e-03,  1.15944028e-01, -9.66286808e-02,
  -2.24079341e-02,  2.46373694e-02,  1.03034154e-02,  1.16971552e-01,
  -1.09574653e-01,  7.02905431e-02,  2.74530023e-01,  1.00314505e-01,
  -2.31148209e-03,  3.24768722e-02,  7.23884106e-02, -5.66775575e-02,
  -1.33787587e-01, -9.05743465e-02,  1.86737716e-01, -2.59783566e-01,
   4.80491109e-02,  1.18373655e-01,  3.87007147e-02, -7.15534166e-02,
  -4.47831489e-03,  1.13500074e-01, -6.33857921e-02,  6.06387481e-03,
  -2.13565528e-02, -1.55221269e-01, -4.05728891e-02,  8.68112892e-02,
   1.64089516e-01, -1.15042955e-01,  1.13844410e-01, -1.33869529e-01,
   1.15564108e-01, -1.83416680e-02, -7.36198109e-03, -2.22599536e-01,
   1.56572148e-01,  4.79989983e-02, -1.08605206e-01,  1.20038606e-01,
   6.58547133e-02,  2.85419892e-03,  1.43448142e-02,  1.63813055e-01,
   1.77711710e-01, -2.53590256e-01,  1.18139088e-01,  1.07550859e-01},
 { 2.32048303e-01, -1.12130098e-01, -5.33025302e-02, -1.50584830e-02,
  -1.84741110e-01,  2.14981046e-02, -8.87900069e-02, -9.99660939e-02,
   2.14633480e-01, -1.90903798e-01,  8.46696571e-02, -1.28094986e-01,
  -3.77853066e-02,  7.44500384e-02,  1.26087159e-01, -1.68348029e-02,
  -7.83360098e-03, -9.96939167e-02, -7.21108764e-02,  9.09863636e-02,
  -4.45364676e-02, -1.39476627e-01,  1.35098556e-02,  1.12378113e-01,
   7.92089030e-02, -1.34815201e-02, -6.61684945e-03, -5.43008707e-02,
   3.19989957e-02,  5.86172678e-02,  2.10195377e-01,  1.24849148e-01,
   1.25833511e-01, -5.22816591e-02,  4.04371123e-04, -2.10648939e-01,
  -1.38788745e-01,  5.07855192e-02, -8.98749009e-03,  8.82668048e-02,
  -1.71539485e-01, -4.57490906e-02,  9.10854638e-02,  1.32073700e-01,
  -1.56041309e-01,  3.04783359e-02, -3.35656926e-02, -5.81085905e-02,
   2.72945940e-01,  1.05168233e-02, -1.61793053e-01,  1.92305937e-01,
   9.67519060e-02, -9.82073769e-02, -7.94185922e-02, -7.22103659e-03,
   1.34839416e-02, -6.83436766e-02, -1.56540256e-02,  1.73752755e-02,
   2.53071964e-01, -9.76708010e-02,  9.77212191e-02, -1.07168965e-01},
 {-3.28320637e-02, -6.90704063e-02,  8.44056085e-02, -9.07149464e-02,
   6.07206747e-02, -1.11669146e-01, -5.36038307e-03, -1.63649954e-02,
   1.13915049e-01, -1.14598498e-01,  9.36831310e-02, -2.26986650e-02,
  -9.99177694e-02, -5.41768447e-02,  9.54037905e-02, -7.58078396e-02,
   4.52513173e-02, -1.62101284e-01,  4.02063653e-02,  9.28004310e-02,
   7.39178434e-03,  3.00670534e-01, -3.66479196e-02, -9.20758471e-02,
   1.89410657e-01,  3.80119048e-02,  1.20462947e-01, -5.33045195e-02,
  -1.10324495e-01, -1.27798527e-01, -1.29422054e-01, -2.47945227e-02,
   8.14566687e-02, -4.99677770e-02,  1.11017760e-03, -3.90435872e-03,
  -2.62113176e-02, -1.83367491e-01,  7.21411631e-02,  1.18746102e-01,
  -1.74120039e-01, -2.79026687e-01, -1.13578610e-01,  7.64342993e-02,
  -7.15902448e-02, -4.49801423e-02, -1.65066719e-02, -1.55203223e-01,
   1.18779719e-01, -8.21167305e-02, -8.65051448e-02,  2.28257701e-02,
  -2.32461497e-01,  3.98131274e-02, -1.24458924e-01, -1.27905170e-02,
  -1.22902349e-01, -5.50103672e-02, -1.00768162e-02,  9.94818807e-02,
   9.15163234e-02, -1.55590191e-01, -1.30331010e-01,  1.12933412e-01},
 { 1.28317222e-01, -9.68856271e-03,  1.42429054e-01, -5.55243064e-03,
  -5.51851876e-02,  1.06261395e-01,  1.20079644e-01, -9.88233760e-02,
  -1.25708625e-01, -4.75259870e-02, -1.24414545e-02, -2.31315434e-01,
   2.58983150e-02,  9.12154093e-02, -7.38040879e-02,  2.41170064e-01,
   2.96373755e-01, -1.21669188e-01,  6.13401681e-02, -8.33797753e-02,
   1.02122858e-01,  1.37342438e-01,  1.43425748e-01,  1.07767001e-01,
   4.70905080e-02, -1.57442316e-01, -3.76438536e-02,  1.10480987e-01,
  -3.73300277e-02, -1.11150309e-01, -1.02719478e-01, -7.05544092e-03,
  -4.22803611e-02, -4.17071506e-02,  2.32878700e-02, -5.75285666e-02,
  -1.26320692e-02,  8.57456997e-02, -1.13789022e-01, -1.14309929e-01,
  -6.32731169e-02, -6.74338117e-02,  8.50818083e-02, -2.64514773e-03,
   1.41748756e-01,  2.06045717e-01,  1.01319931e-01,  1.34656504e-01,
  -1.36754051e-01, -1.47014230e-01, -2.86519285e-02, -1.81561038e-01,
  -2.33367935e-01, -3.18643898e-02, -1.56973898e-01,  2.84346074e-01,
  -2.29399532e-01,  2.06467867e-01, -1.77477136e-01, -8.23929310e-02,
  -2.75482386e-01, -4.94806208e-02, -1.62002444e-02,  4.27809879e-02},
 { 2.77261641e-02, -1.05396777e-01, -1.39989868e-01,  1.59457415e-01,
   8.30487758e-02, -9.35109705e-02, -1.12987474e-01,  2.28526875e-01,
   1.54162228e-01,  1.74664315e-02, -8.99420977e-02, -9.37031284e-02,
  -7.12418407e-02, -5.22497073e-02,  4.87690605e-03, -9.01621655e-02,
  -2.46004332e-02,  1.74311146e-01, -4.46817875e-02, -1.18771605e-01,
  -9.37007740e-03, -7.32927546e-02, -8.14666674e-02, -2.90667266e-01,
   2.13996634e-01,  5.58643416e-03, -1.48666903e-01, -2.87381355e-02,
   9.41098407e-02,  8.55333209e-02, -7.02501014e-02, -1.42338738e-01,
   3.90715003e-02, -1.92524031e-01,  6.02309778e-03,  6.91829100e-02,
  -5.55239245e-02, -7.70995244e-02,  7.79806674e-02, -1.67540796e-02,
   1.56169832e-01,  2.23429859e-01,  7.33612105e-02, -1.85640864e-02,
   2.52553374e-01,  1.05867505e-01,  2.56493054e-02,  8.41027573e-02,
  -3.43510881e-02,  8.14238489e-02,  1.13353238e-01,  1.62824020e-01,
  -4.55880128e-02, -5.23644313e-02, -7.79122561e-02, -2.02690288e-02,
   9.46412310e-02,  4.32399809e-02,  1.90563798e-01, -2.55462825e-01,
   1.89201623e-01, -7.62656182e-02,  6.90381452e-02, -1.59658939e-01},
 {-4.77450248e-03, -2.85111427e-01, -4.77052033e-02, -2.56857872e-01,
   9.50423703e-02,  5.90025354e-03,  3.00403703e-02,  2.34662741e-02,
   2.86647398e-02,  4.89546545e-02, -1.88478142e-01, -1.43806979e-01,
   9.79913399e-02, -1.03601538e-01, -3.20595354e-02,  6.27748147e-02,
  -4.79546040e-02, -3.11483711e-01, -1.46925077e-01, -1.64174344e-02,
  -6.45264462e-02, -6.39358535e-02,  1.10127881e-01, -2.22311188e-02,
  -3.66723910e-02,  1.12817079e-01,  7.17470720e-02,  2.92125404e-01,
   2.35063031e-01,  1.06770165e-01, -4.68962938e-02, -2.62474477e-01,
  -1.15132080e-02,  1.63773894e-01, -8.10001269e-02, -3.93373296e-02,
   3.04194577e-02, -1.12314923e-02, -1.29939511e-01,  1.71922937e-01,
   1.80316910e-01,  2.77645141e-01,  2.16538653e-01, -1.08178914e-01,
   1.18006933e-02,  1.80170417e-01, -3.80952321e-02,  1.19106002e-01,
   6.52553067e-02, -7.49951228e-02,  9.56155825e-03,  1.89131014e-02,
   3.54323834e-02, -1.16472140e-01, -1.26379251e-01, -8.02303255e-02,
  -1.64720222e-01, -1.29385307e-01,  8.09837580e-02, -1.55463055e-01,
  -1.74873188e-01, -6.56515956e-02,  1.42481968e-01,  3.48509327e-02},
 {-2.42520384e-02, -1.10195175e-01,  1.04196951e-01, -2.56153077e-01,
  -1.58822253e-01,  1.92341059e-02, -1.01539969e-01,  1.41722411e-01,
  -2.33851299e-01, -5.97697459e-02, -7.92558789e-02,  5.30196680e-03,
   1.58404008e-01,  1.32642955e-01, -6.93308795e-03,  9.68637019e-02,
   1.16051167e-01, -1.64251149e-01,  4.32835892e-02,  1.07333362e-01,
   3.38973291e-02,  2.24965438e-02, -8.87834057e-02, -3.23889544e-03,
  -2.33677655e-01,  1.28421530e-01,  1.22055151e-01, -5.46930283e-02,
   1.49234265e-01,  6.61585256e-02,  1.25519652e-03,  1.68349817e-01,
  -1.67273618e-02,  8.96429992e-04, -6.00466579e-02, -1.24394558e-01,
  -1.12950958e-01, -1.55537516e-01,  1.43545508e-01, -4.63007527e-05,
  -6.12540841e-02, -1.84494033e-02,  1.63266391e-01,  3.01359538e-02,
  -4.42304909e-02,  7.81862810e-02,  1.38538420e-01,  7.98921958e-02,
  -3.19460064e-01, -6.29714951e-02,  1.15112416e-01, -2.16421783e-02,
  -5.94848357e-02, -1.61821008e-01,  6.40339330e-02, -9.30444971e-02,
   1.27711266e-01,  1.27969921e-01,  2.67424788e-02, -4.00355272e-02,
   2.30478402e-02, -1.93885490e-02, -9.34064165e-02,  1.70234308e-01},
 {-1.13085490e-02,  5.25026843e-02, -1.08755209e-01, -1.55437782e-01,
   3.11810989e-02, -1.06084488e-01,  1.33843031e-02, -1.10055305e-01,
   3.06182466e-02,  2.17412636e-01, -2.41375081e-02,  3.40963639e-02,
  -5.87642044e-02, -1.46803886e-01,  1.46850809e-01,  1.39209451e-02,
   1.49438605e-01, -2.22082451e-01,  5.60365729e-02, -2.91789677e-02,
   1.72078773e-01,  5.29713295e-02, -7.34581277e-02, -3.67576964e-02,
  -1.05622940e-01, -3.34644243e-02, -2.29644448e-01,  5.89397363e-02,
  -8.45902599e-03, -1.37028813e-01,  1.78498134e-01, -7.83058405e-02,
  -1.22002594e-01, -2.64116257e-01, -1.32984936e-01,  1.96450166e-02,
   6.39053481e-03,  3.96687724e-02,  1.31674975e-01,  1.14917479e-01,
  -1.61948372e-02, -6.94048079e-03, -6.99114129e-02, -8.95401165e-02,
  -8.44181404e-02, -2.36708540e-02, -1.56073198e-01,  1.13326207e-01,
   1.38767168e-01, -5.43143824e-02,  3.92288808e-03, -1.84642989e-02,
   1.55135095e-01,  1.58561412e-02, -1.31774008e-01, -2.42743298e-01,
  -8.84792432e-02,  7.28253126e-02, -5.85588850e-02, -8.11826512e-02,
   5.95278405e-02, -8.86664018e-02,  5.03105558e-02,  2.04043716e-01},
 {-6.67236298e-02, -1.06935479e-01,  1.70881264e-02,  6.96355999e-02,
  -4.46570329e-02, -9.50174108e-02,  8.39703605e-02, -4.38768119e-02,
  -4.08698246e-02,  2.05732688e-01, -8.28726143e-02,  1.12297803e-01,
  -3.33191501e-03, -7.94651061e-02,  7.01947436e-02, -1.94425270e-01,
  -2.46019989e-01,  4.15273570e-02,  1.13031462e-01,  1.46088317e-01,
   7.45917857e-02, -1.07415996e-01, -8.94952938e-03,  1.27001315e-01,
  -1.31871238e-01, -7.45081529e-02, -8.64676684e-02, -1.12627491e-01,
  -1.09789129e-02,  5.84860556e-02, -7.54776821e-02,  2.93489695e-02,
  -7.42446259e-02,  8.10698122e-02, -4.20557521e-02, -1.94915086e-01,
  -9.03472900e-02,  3.20261531e-02, -1.46782920e-02, -3.44357314e-03,
   2.89291404e-02, -1.17251821e-01, -1.24406032e-01,  7.21122026e-02,
   1.63453370e-01, -6.90356120e-02,  8.53848159e-02, -4.26318273e-02,
   3.64402682e-02, -1.24483872e-02, -2.18966350e-01, -1.90940976e-01,
   3.10919975e-04,  2.70370632e-01, -1.47216037e-01, -1.57937985e-02,
   2.28976067e-02,  7.79086649e-02,  1.00921072e-01,  5.74653819e-02,
  -8.02623928e-02, -1.71649262e-01, -1.11896200e-02,  4.86176088e-02},
 { 3.82772386e-02, -2.38801867e-01, -8.60454887e-02,  7.24387690e-02,
  -2.17082113e-01, -3.20085064e-02, -9.15152133e-02,  1.88935846e-01,
   2.73438901e-01, -3.35591775e-03, -6.28162452e-05,  1.33329496e-01,
  -1.13086693e-01,  1.50911778e-01,  1.02463387e-01, -2.80454665e-01,
   1.08066797e-01, -1.17288895e-01, -8.38413388e-02, -8.11482146e-02,
   9.26848724e-02,  6.61185849e-03, -1.78136811e-01, -1.70059204e-01,
  -1.50502235e-01, -1.21171385e-01,  1.38380885e-01, -1.21309318e-01,
   3.97428013e-02,  1.19476661e-01, -7.65466839e-02,  1.26200855e-01,
  -5.00328019e-02, -5.65738603e-02,  4.24785241e-02,  1.35017037e-01,
   1.02832110e-03,  1.25550196e-01, -1.08492278e-01, -1.04191918e-02,
  -7.80458674e-02,  1.61105409e-01, -7.81511292e-02,  1.05981454e-02,
  -1.06689386e-01,  3.66090536e-02,  1.23384744e-01,  2.49596834e-01,
   8.60280544e-02, -2.87331245e-03,  1.24887735e-01, -1.83946975e-02,
   2.67296076e-01,  6.88164979e-02,  1.67146757e-01,  1.19113006e-01,
  -3.21702749e-01,  8.83691832e-02,  2.51402836e-02, -3.19677405e-02,
  -8.81489441e-02, -1.35521546e-01,  3.22842188e-02, -2.28565618e-01},
 { 1.27042606e-01,  7.22108930e-02, -3.71397495e-01, -9.94207263e-02,
   2.74583343e-02, -5.31048886e-02,  1.67804495e-01, -2.23667011e-01,
   1.14431372e-02, -3.05668395e-02,  3.59161161e-02, -2.75760144e-01,
   7.66373426e-02,  9.79511738e-02,  1.81104615e-02,  6.96947798e-02,
  -1.60971448e-01,  1.74775198e-02,  1.31020188e-01,  2.20916286e-01,
   2.98680626e-02,  1.31449047e-02, -4.40523885e-02, -3.56743276e-01,
   1.02666758e-01,  5.80077134e-02, -9.49529484e-02, -1.29136801e-01,
   8.38211179e-02, -2.74702281e-01, -1.48470983e-01, -6.67278394e-02,
   1.47751257e-01,  1.44134015e-01, -5.31575680e-02,  6.06286898e-02,
  -5.42015098e-02, -3.75307739e-01,  6.85929880e-03,  5.30726388e-02,
  -9.67624858e-02, -6.30996525e-02, -2.21029650e-02,  2.75871158e-02,
  -2.47721985e-01, -2.71634549e-01, -2.42707320e-02,  7.07273260e-02,
   3.93042788e-02, -2.40842998e-02, -1.47663697e-03, -1.93754467e-03,
  -4.75827381e-02,  1.36967629e-01,  3.08551639e-02, -9.79741476e-03,
  -2.70991046e-02, -1.13476068e-01, -8.51963088e-02,  9.31896418e-02,
   2.51487792e-02, -7.82842711e-02,  1.05846815e-01,  1.22533731e-01},
 {-1.15884647e-01,  1.83937281e-01,  1.10686943e-01, -1.59121960e-01,
  -1.20449848e-01, -1.05531752e-01,  6.48758709e-02,  7.24267140e-02,
  -8.76747370e-02,  1.60651565e-01, -9.94275883e-02, -2.80944842e-05,
   3.30714025e-02,  3.84203419e-02,  5.32023422e-03,  6.35338947e-02,
  -1.26293868e-01, -1.43578917e-01,  2.98155248e-02, -2.33703963e-02,
   9.52165350e-02, -1.04755767e-01, -6.07105531e-02, -1.30755603e-01,
   1.28238931e-01,  1.57377943e-01, -4.00213897e-02,  3.48273478e-02,
  -6.18252307e-02, -1.19212903e-01,  1.36558622e-01, -7.22075030e-02,
   8.22725967e-02, -9.06761959e-02, -5.64863556e-04,  1.26153440e-03,
  -3.47840879e-03, -1.06311373e-01,  2.11327910e-01,  9.24939811e-02,
  -7.06286961e-03, -5.33423871e-02,  6.49673194e-02, -3.09265941e-01,
   1.39557764e-01,  2.13945299e-01,  8.49113762e-02, -4.80161011e-02,
   1.22446261e-01, -1.86230302e-01, -3.25040109e-02, -2.68511027e-01,
  -2.09183186e-01,  9.35684890e-02, -1.34311259e-01, -4.78833437e-01,
  -2.06014905e-02,  9.84357670e-02, -3.06855798e-01, -1.15426138e-01,
   1.36570573e-01, -1.68464571e-01, -1.82953790e-01,  3.22350697e-03},
 {-2.16423497e-02, -1.89556465e-01,  1.37481138e-01, -1.16765819e-01,
   1.27287358e-02,  3.80941108e-03, -3.15851808e-01,  1.61861315e-01,
   1.58481643e-01, -9.56558213e-02,  7.01485202e-02, -9.92749780e-02,
  -2.64588539e-02, -1.54689863e-01, -1.32084817e-01, -9.85006839e-02,
   4.35635597e-02, -1.72922045e-01,  3.56669687e-02, -1.10357821e-01,
  -2.18087897e-01,  5.29565588e-02,  3.66595201e-03, -6.03042133e-02,
   1.97525084e-01,  1.05899423e-01, -3.28596570e-02, -7.06673190e-02,
  -1.09274410e-01, -1.46639004e-01, -7.18691647e-02,  1.04524255e-01,
   1.73118398e-01, -2.51978785e-01, -4.92451154e-02, -1.51023299e-01,
  -2.31610592e-02, -1.65982947e-01, -4.91878353e-02,  2.99461298e-02,
   1.36241004e-01,  1.35270193e-01,  7.01541901e-02, -2.33142190e-02,
   2.56628869e-03, -1.57381520e-01, -2.66050566e-02,  6.10199310e-02,
   3.85841839e-02,  3.10273737e-01, -2.45396957e-01,  1.53367370e-01,
   1.96384221e-01, -6.95744604e-02,  8.52239951e-02,  3.45694982e-02,
  -4.23265062e-02,  3.29944380e-02, -1.86669528e-02,  3.86412663e-04,
   7.00169578e-02, -1.18302040e-01, -2.55842835e-01, -1.16220176e-01},
 {-2.36373350e-01, -3.01199317e-01, -2.67775133e-02, -1.63056627e-01,
   1.21577047e-01, -1.80293426e-01,  1.31342366e-01, -2.56842643e-01,
   1.95446208e-01,  1.95262022e-02, -1.31905034e-01, -6.51438385e-02,
   1.02634467e-01, -2.20094338e-01,  5.98348342e-02,  9.38499123e-02,
  -8.22936296e-02, -2.23543029e-03, -2.02063590e-01,  3.30301784e-02,
  -4.45628427e-02,  2.25178555e-01,  6.91626817e-02, -9.92300659e-02,
  -3.13673019e-02,  9.14704055e-02, -2.30093241e-01,  2.20793262e-01,
   1.38642760e-02, -4.89097945e-02,  1.37370557e-01, -1.17147259e-01,
   1.84779230e-03, -2.19076559e-01, -7.68754333e-02,  4.04411107e-02,
   2.95507610e-02, -8.63824040e-02,  1.15895076e-02, -2.33947430e-02,
   8.06726366e-02,  2.43883848e-01,  1.66072771e-01, -2.69503027e-01,
   1.61555856e-01,  1.45763502e-01,  9.01255161e-02,  3.29430923e-02,
   5.79289310e-02,  9.64901224e-02, -2.33729482e-02, -3.85192670e-02,
  -1.03220157e-01, -1.22010522e-01, -3.67565975e-02,  3.36564928e-02,
   1.71911474e-02,  2.08492316e-02,  2.44137011e-02, -1.70518413e-01,
   6.19698204e-02,  7.13444650e-02,  1.97807662e-02, -1.69715405e-01},
 {-2.13172566e-02, -1.02195218e-01, -1.11434273e-01, -1.43906787e-01,
  -3.79645854e-01, -1.26067773e-01,  9.23763886e-02,  1.57687724e-01,
  -1.93442240e-01,  6.34668022e-02, -7.08165765e-02, -1.35235250e-01,
   6.41707471e-03,  9.66759622e-02, -2.00098809e-02,  8.77151173e-03,
   6.98454231e-02,  5.41173816e-02, -1.21739712e-02, -8.98323432e-02,
  -1.36694804e-01,  1.37897149e-01, -5.12783527e-02,  1.10678121e-01,
  -5.03258966e-02, -5.46951108e-02, -5.08533455e-02, -2.40281880e-01,
  -6.61328211e-02, -8.44758600e-02,  6.94827223e-03, -4.72577140e-02,
  -1.43722259e-02, -1.98951140e-01,  8.52724835e-02, -1.59029990e-01,
   1.27501771e-01,  1.17181785e-01, -3.93131888e-03, -1.15475766e-01,
   6.60317913e-02, -8.01159739e-02, -2.49876138e-02,  1.00443043e-01,
   1.75212219e-01, -1.54913872e-01,  7.84214884e-02, -1.52749449e-01,
  -8.74765739e-02, -1.59976602e-01,  8.17747712e-02, -9.44648758e-02,
   2.45750025e-02,  8.83589089e-02,  1.09298892e-01, -1.81521606e-02,
   1.72643781e-01,  1.26095995e-01, -6.47379011e-02,  2.20738295e-02,
  -1.36649266e-01, -1.08922884e-01,  2.52474397e-02, -2.16362044e-01},
 { 3.45753461e-01,  8.23319256e-02,  4.10918407e-02, -2.30078831e-01,
  -6.84423074e-02, -2.45444644e-02, -6.58225501e-03, -1.02471344e-01,
  -1.79700032e-02, -2.22801045e-01, -1.12191610e-01, -4.68031727e-02,
  -2.45418791e-02, -6.19814591e-03,  1.41521454e-01,  1.34476125e-01,
  -1.61984470e-02,  1.80574208e-01, -5.00794798e-02, -1.89806893e-01,
   1.09745912e-01, -6.31552041e-02,  1.75386295e-01,  2.84276400e-02,
   1.47950634e-01,  2.47385073e-02, -2.98363924e-01, -5.82508966e-02,
  -1.31482370e-02,  7.67291263e-02,  2.12527171e-01, -1.85795240e-02,
  -2.64990814e-02, -2.11613420e-02, -1.02770358e-01, -1.09655246e-01,
   9.17988420e-02,  1.69820916e-02,  1.28690362e-01,  7.54992366e-02,
  -1.76027104e-01, -1.42585322e-01,  1.09033458e-01, -3.54099311e-02,
  -2.21311763e-01, -1.63312301e-01,  2.41439380e-02, -6.68178722e-02,
   8.24190974e-02,  4.62594442e-02, -1.42818717e-02,  2.01360807e-02,
   2.04880565e-01,  7.20809177e-02, -7.05541298e-02,  1.95069447e-01,
   8.45594481e-02, -1.86345093e-02, -8.38780031e-02, -1.45010293e-01,
  -1.72573820e-01, -1.38972685e-01,  1.61630828e-02,  2.39686847e-01},
 {-1.11119419e-01,  7.52257481e-02,  4.90070395e-02,  5.11830449e-02,
  -6.92215040e-02,  1.23914495e-01,  8.40684325e-02,  5.98037243e-02,
  -1.96456894e-01, -4.89699468e-02, -1.97795965e-02,  6.56554997e-02,
  -7.44950622e-02, -2.75541008e-01, -4.54196036e-02,  3.34959179e-02,
  -1.56282723e-01, -8.14019889e-02,  1.30599827e-01, -1.73390254e-01,
   1.19733073e-01, -1.72122806e-01,  2.65597224e-01,  7.51056671e-02,
  -3.63395691e-01,  1.52584286e-02,  1.01271443e-01, -1.75892487e-01,
   8.78705382e-02, -5.54718822e-02,  5.14993966e-02,  2.25317832e-02,
   5.03571369e-02,  1.69498816e-01,  4.49780654e-03, -2.25545093e-02,
  -2.46204473e-02, -3.80178913e-02,  7.57545531e-02,  1.35231495e-01,
   1.06088951e-01, -7.17311306e-03,  1.18981168e-01,  2.22138204e-02,
   1.90635026e-01, -2.20156729e-01, -1.87668592e-01,  6.29919022e-02,
  -5.53920306e-02,  1.49560958e-01,  1.31399602e-01, -1.55707911e-01,
  -1.51208624e-01,  4.86437418e-02, -1.84816673e-01, -4.93652821e-02,
   4.38568816e-02, -1.01041563e-01,  1.92060858e-01, -8.19125921e-02,
  -1.36675686e-01,  1.64511874e-01,  2.89618913e-02,  1.99129164e-01},
 {-3.48378755e-02,  3.46684195e-02, -1.35586724e-01, -6.75236508e-02,
   3.82974856e-02, -5.46845496e-02, -1.38677508e-01,  7.19611347e-03,
   6.92153051e-02, -6.15709014e-02,  9.35546979e-02, -1.37087584e-01,
   8.62537399e-02, -6.11233190e-02,  4.19787727e-02, -3.33904587e-02,
  -6.99015483e-02,  4.11628895e-02, -1.55178890e-01, -2.84746382e-02,
   1.00402936e-01, -1.46526054e-01, -4.29177843e-02, -5.06412983e-02,
  -2.01422304e-01,  6.96639046e-02, -1.91619352e-01,  2.05383211e-01,
   2.27944423e-02,  2.04884231e-01,  8.66803452e-02,  3.83378863e-02,
   1.62295759e-01,  7.30388090e-02,  6.41209483e-02,  2.34916791e-01,
  -6.35169148e-02, -5.15290983e-02, -1.92754865e-01,  4.09634076e-02,
  -1.22994497e-01,  7.69193023e-02, -1.33094387e-02,  1.06601141e-01,
  -1.14081308e-01,  1.76139101e-01, -8.17177724e-03,  6.62792921e-02,
   8.94725397e-02, -4.60061021e-02,  1.02014430e-01, -1.97947606e-01,
   3.85225825e-02,  7.29068965e-02,  5.59586361e-02,  3.94059308e-02,
  -1.35923430e-01, -7.08745569e-02, -4.36644442e-02, -5.60412221e-02,
  -1.58048160e-02,  8.99105519e-02,  5.91937639e-02, -2.06320658e-01},
 { 2.64468879e-01, -2.71151394e-01,  2.46432330e-02, -6.39433265e-02,
   1.61119580e-01, -2.08481446e-01,  4.17052489e-03, -1.49435639e-01,
   1.49798021e-01,  2.76883580e-02,  3.10339895e-03, -5.52593246e-02,
  -2.41398975e-01,  1.18535109e-01, -4.00577299e-02, -5.52235022e-02,
   2.26668701e-01,  1.82255939e-01,  1.03807328e-02, -1.02570867e-02,
  -2.25856528e-02,  2.60689035e-02, -1.58436187e-02,  4.17503938e-02,
  -2.23645732e-01,  2.56190486e-02, -2.34906495e-01,  8.67920369e-02,
  -2.41323095e-02,  1.18628614e-01, -3.58717628e-02, -3.36002372e-02,
   2.17646539e-01,  2.84009129e-01, -1.02904230e-01, -4.43586819e-02,
  -1.41221911e-01, -1.21256165e-01,  1.15225464e-01,  1.10870332e-01,
  -4.87470478e-02, -8.19172114e-02, -4.52638008e-02, -2.05991622e-02,
  -1.33434951e-01,  3.98725420e-02, -1.64362371e-01, -1.39725059e-01,
   1.56104872e-02,  2.18131050e-01, -9.70595628e-02, -1.69643298e-01,
   5.53777032e-02,  2.56515872e-02, -1.31765932e-01, -4.00996022e-02,
   9.17610154e-02,  3.62306014e-02,  8.53099674e-02,  7.06375465e-02,
  -5.07779270e-02, -3.11040372e-01, -3.05225015e-01,  1.53737158e-01},
 {-8.66789743e-02, -5.47578670e-02, -1.05951175e-01, -1.32632479e-01,
  -7.22751468e-02, -7.04135671e-02, -1.97731689e-01, -1.14269312e-02,
   3.71921174e-02, -1.20070174e-01, -2.45673165e-01, -5.98478317e-02,
  -1.93185322e-02,  8.46307632e-03,  2.77085658e-02,  5.85518964e-02,
  -2.32521087e-01,  7.96033144e-02,  8.37850496e-02,  9.83533189e-02,
   8.64820331e-02, -1.49126351e-01,  1.41597062e-01,  3.19029167e-02,
   5.20211980e-02, -8.59241784e-02,  3.76910940e-02, -8.55516195e-02,
   9.07262117e-02, -1.92696266e-02,  1.31732579e-02,  2.14528963e-02,
   7.12208226e-02, -1.51245654e-01,  6.52254820e-02, -5.99822998e-02,
   1.98878646e-01,  1.21227711e-01,  1.10405311e-01,  1.17343895e-01,
  -1.08899280e-01,  8.95018131e-02,  4.51459698e-02, -5.35374917e-02,
   2.15138584e-01,  5.46376966e-02,  9.63013694e-02,  1.25527859e-01,
  -2.02777103e-01, -2.71901816e-01,  1.11348569e-01,  1.87617138e-01,
   5.18272119e-03,  2.06695259e-01, -1.13224126e-01,  1.85260236e-01,
   1.39623731e-01,  1.54403374e-01, -7.63165504e-02,  1.51944846e-01,
   1.40803322e-01,  3.30362581e-02,  4.39067520e-02,  8.51327404e-02},
 {-4.94517684e-02, -2.65741684e-02,  1.03891650e-02, -1.28718652e-02,
   2.09310204e-01, -1.25764087e-01, -8.90119225e-02, -2.89245527e-02,
   1.57759577e-01, -8.39430988e-02,  5.54266088e-02, -8.11267942e-02,
  -2.71775931e-01, -2.75954902e-01,  2.08772961e-02,  5.20448154e-03,
   7.60649964e-02, -2.32432693e-01,  1.50679559e-01, -1.40226975e-01,
  -3.01892072e-01, -1.15279444e-01,  9.05391425e-02, -9.56703648e-02,
   6.60558697e-03,  2.42663436e-02,  1.16658039e-01,  6.04845583e-02,
  -1.56242430e-01, -4.23921049e-02,  6.02438580e-03,  2.98397899e-01,
   2.82680523e-02, -2.54773438e-01, -7.77970627e-02,  8.84190723e-02,
  -6.53178012e-03,  3.00879180e-02, -7.76516944e-02, -4.26778868e-02,
   1.38189599e-01, -9.26205218e-02, -8.83990452e-02, -1.30786031e-01,
  -4.56861034e-02, -3.34911570e-02,  9.41416025e-02,  5.47167026e-02,
   2.08553553e-01, -7.39087090e-02,  1.13971144e-01,  3.14148441e-02,
   2.13435948e-01, -1.62928298e-01, -1.05990082e-01,  2.26027425e-02,
  -3.60627845e-02, -4.19055624e-03,  5.01529239e-02, -2.07001884e-02,
  -1.80108875e-01,  3.85441855e-02, -9.26278345e-03, -8.79683048e-02},
 {-2.99127340e-01, -1.58770546e-01,  1.67479028e-03,  5.00495248e-02,
   9.60452557e-02,  2.97232959e-02, -1.85473263e-01, -2.17976615e-01,
   9.05210599e-02, -6.12291507e-04,  2.27887779e-01, -2.74774462e-01,
  -1.80747420e-01, -1.42266601e-01, -1.53837176e-02,  7.90943131e-02,
  -1.11903161e-01,  1.58073261e-01, -2.54237592e-01,  2.81293616e-02,
   1.42268851e-01, -7.52518475e-02, -2.12113902e-01,  7.08871260e-02,
   3.63162309e-02, -5.63683324e-02, -2.16962576e-01,  9.13687646e-02,
   1.12227991e-01, -7.11569488e-02, -1.52818963e-01,  1.39805317e-01,
  -2.60154400e-02, -5.06167673e-02, -1.62740611e-02,  8.80710185e-02,
   3.25948820e-02, -1.82504132e-01, -9.11452528e-03, -9.15868208e-04,
   2.04791371e-02, -3.81322578e-02,  1.86722219e-01, -1.67073265e-01,
   3.09705716e-02, -1.94629103e-01,  4.12625633e-02, -3.29341851e-02,
  -5.47528677e-02, -7.39149973e-02, -2.56336242e-01, -1.32216588e-01,
  -2.86838770e-01, -2.09737480e-01,  1.99973676e-02,  8.22884124e-03,
   2.65070677e-01, -7.90732875e-02,  7.39404815e-04,  1.11584403e-01,
   1.15915965e-02, -2.51905583e-02, -1.08761545e-02,  2.14438692e-01},
 { 5.22249229e-02, -9.76215824e-02, -3.71322632e-02,  7.09003396e-03,
  -4.57257181e-01, -2.39266846e-02,  5.45130223e-02,  1.65134266e-01,
   8.70563090e-03, -1.13769256e-01,  4.44789268e-02,  7.71798790e-02,
  -1.43417418e-01,  7.50714168e-02,  3.62685919e-02, -5.60275167e-02,
  -1.44049361e-01, -4.29204814e-02, -9.95672122e-02,  8.71821120e-02,
  -1.81802705e-01, -1.75745562e-01, -1.97453976e-01,  1.20330855e-01,
  -8.49536359e-02, -4.54587862e-02,  1.21024497e-01, -9.78332385e-02,
  -1.52428970e-01, -1.02245711e-01,  3.15650622e-03,  4.94529568e-02,
  -2.75372267e-02, -1.38519302e-01, -1.32823102e-02, -6.82006627e-02,
  -8.94391313e-02,  1.30559802e-01, -8.96805748e-02, -1.48173943e-01,
  -4.10171412e-02,  6.88384920e-02, -1.40537322e-01,  1.19369835e-01,
  -1.14954636e-01, -2.56633144e-02,  1.31600380e-01,  1.99628510e-02,
  -9.12847146e-02, -1.22103520e-01, -1.35723382e-01,  1.13636233e-01,
  -5.79143167e-02, -1.26975656e-01,  8.99770763e-03, -1.49837375e-01,
   1.73552662e-01,  8.39890838e-02,  5.86027317e-02,  8.98423418e-02,
  -1.07606584e-02, -8.33741426e-02,  6.76848665e-02,  9.33945626e-02},
 { 1.82614014e-01,  3.59583385e-02,  2.40890816e-01, -9.60019231e-03,
  -6.69355541e-02,  6.86502233e-02,  1.04057947e-02,  2.23208554e-02,
  -2.60619491e-01, -1.18076224e-02, -3.37503329e-02, -1.42901495e-01,
   1.15078799e-01,  2.17631031e-02,  7.62150213e-02, -7.18559474e-02,
  -7.52499839e-03,  1.60221174e-01,  5.20171486e-02, -4.64660767e-03,
   1.29515111e-01, -9.47313979e-02, -1.03131592e-01, -3.12734127e-01,
  -6.13965578e-02,  1.27099305e-01, -3.15886736e-01,  5.00464253e-02,
  -4.47409637e-02,  1.14263281e-01, -2.85133779e-01, -1.02077194e-01,
  -5.46267927e-02, -3.07690259e-02, -5.05480841e-02,  3.50047536e-02,
  -8.79313797e-02, -4.17301394e-02,  1.19596608e-01,  1.09474346e-01,
  -3.21411528e-02,  3.81080667e-03, -4.39301133e-02,  1.57852739e-01,
  -2.06028834e-01, -1.50765121e-01,  4.70550358e-03, -2.86946278e-02,
  -3.33387069e-02, -1.11213692e-01, -1.50702998e-01,  1.21307567e-01,
   7.68721756e-03,  6.71126023e-02, -7.29122609e-02,  5.78029174e-03,
  -1.62555892e-02,  1.41302273e-01,  1.93602473e-01,  1.75937265e-01,
   3.06872316e-02,  7.54579827e-02,  1.06204733e-01,  1.62823990e-01},
 { 2.82585695e-02, -6.96292594e-02,  4.95165959e-02, -1.37107715e-01,
   8.59963894e-03, -2.18429118e-02,  8.95944163e-02,  1.45887583e-01,
  -6.22416399e-02, -1.33962696e-02, -1.76308140e-01, -9.12103243e-03,
   3.27200405e-02, -7.88457021e-02,  7.12402388e-02, -1.67563230e-01,
  -3.33878323e-02, -7.49652758e-02,  1.63727269e-01, -6.62286133e-02,
   1.34721950e-01,  5.03462143e-02,  5.01495861e-02, -1.27337530e-01,
  -2.03771099e-01,  3.02610807e-02, -2.69452613e-02, -1.84955209e-01,
   9.81001277e-03,  1.35394027e-02,  1.13242745e-01, -5.20217232e-02,
  -4.94884960e-02, -2.48542242e-02, -5.15212342e-02, -2.64858782e-01,
  -4.81504798e-02,  7.59340748e-02,  1.09452911e-01,  3.26392464e-02,
   3.08263917e-02,  1.86467215e-01, -1.29190413e-02, -3.25683951e-02,
   1.39518343e-02, -2.16121942e-01, -8.69996175e-02, -7.72302970e-02,
  -2.23654687e-01,  2.03374133e-01, -2.00004671e-02, -4.68935966e-02,
  -2.23628446e-01,  1.31426409e-01, -1.03332773e-01, -6.35650894e-03,
   4.28777486e-02, -4.54941392e-02,  2.25273773e-01, -2.59830281e-02,
  -1.60429761e-01,  1.05481379e-01, -3.39606144e-02,  3.01840771e-02},
 {-2.01223671e-01,  1.03585206e-01,  8.93624425e-02,  6.14183545e-02,
   8.35054219e-02,  2.42959280e-02,  1.66855648e-01, -1.14941806e-01,
   1.28690049e-01, -2.87579224e-02, -1.90463409e-01,  1.02392904e-01,
   1.83144659e-02,  9.30565298e-02,  1.87479079e-01, -1.97200045e-01,
   3.87630165e-02, -9.19834450e-02, -7.68513978e-02,  7.89529532e-02,
   1.85003981e-01,  1.94463551e-01, -1.27044410e-01, -1.67245150e-01,
  -4.86317009e-01, -1.82136044e-01,  4.71207164e-02,  2.69682202e-02,
   1.06302574e-01, -2.84321443e-03,  1.00550562e-01,  3.86431478e-02,
  -5.84467081e-03, -4.49604094e-02,  1.48660928e-01,  2.81480849e-01,
  -3.21564265e-02,  9.35123712e-02, -1.98206753e-01,  2.84170527e-02,
  -1.26920909e-01,  4.58139461e-03, -1.12195812e-01, -1.44719660e-01,
  -1.80349257e-02,  7.52493069e-02,  2.62466166e-02,  1.30243197e-01,
   2.12872162e-01, -1.88412860e-01, -1.03996769e-01, -4.47183102e-02,
  -1.07532032e-01, -1.40687257e-01, -6.62219450e-02, -2.44094059e-02,
   4.42516170e-02,  5.95604107e-02,  2.01990865e-02, -1.07072210e-02,
   1.32274153e-02,  1.09054074e-01,  4.49354276e-02,  1.10596918e-01},
 { 2.42901862e-01,  4.08136398e-02,  9.03884321e-02,  1.81576479e-02,
   1.18124798e-01,  6.10642415e-03,  1.15934305e-01,  4.46874127e-02,
  -3.63416187e-02, -1.09656543e-01, -1.23449340e-01,  1.23358279e-01,
   1.28183618e-01,  9.12661757e-03,  1.35042131e-01, -1.48764029e-01,
   1.91788264e-02,  5.13785034e-02,  1.31815583e-01, -1.32915033e-02,
   2.15884186e-02, -5.16128838e-02, -1.88952267e-01,  2.21679062e-01,
  -3.66981894e-01, -5.47012649e-02, -1.49452120e-01, -2.05770489e-02,
   1.06046289e-01,  9.97706428e-02, -1.40914172e-01, -6.16383031e-02,
   9.83020365e-02,  7.52838254e-02, -2.64556836e-02,  1.04388170e-01,
  -2.29973644e-01, -1.15262151e-01,  1.83333866e-02,  6.03705160e-02,
  -3.39340270e-02,  1.18730729e-02, -3.81593220e-02, -5.84219620e-02,
  -1.02871507e-01,  3.40544619e-02,  1.23053268e-02,  5.21668568e-02,
   1.94057333e-03,  4.80719283e-02, -7.57100433e-02, -1.54563531e-01,
   1.20266512e-01, -1.64946496e-01, -3.01632375e-01, -5.19421287e-02,
  -1.45530719e-02,  3.90195213e-02,  9.75341909e-03,  1.62192568e-01,
   3.60476598e-02,  8.93132910e-02, -6.34866655e-02,  1.31748199e-01},
 { 6.37072399e-02,  3.64328884e-02,  1.12265401e-01,  3.06162052e-02,
  -4.77325656e-02, -1.23157110e-02, -6.55967444e-02,  8.81647412e-03,
  -1.43697202e-01,  3.36086354e-03,  7.58230984e-02, -3.87570225e-02,
  -8.25068913e-03, -2.75513101e-02,  5.61353266e-02, -1.11931071e-01,
   1.19292825e-01, -1.63276643e-02,  1.05508203e-02, -9.23087522e-02,
   7.59810135e-02, -2.82498114e-02,  6.34653121e-02, -6.93076402e-02,
   8.93250108e-02,  1.11949004e-01,  1.07084967e-01, -1.06579497e-01,
   1.85680002e-01,  1.62498325e-01, -2.02621296e-01,  1.58579811e-01,
   5.56377769e-02, -1.54132605e-01, -1.45233184e-01, -1.58032417e-01,
   1.57903388e-01, -1.37529865e-01,  2.09455147e-01,  1.65718257e-01,
  -2.21936688e-01,  3.65874246e-02, -4.54156026e-02,  1.81449845e-01,
   7.93383420e-02, -2.06367359e-01, -9.99894142e-02, -1.03793517e-02,
  -1.40175903e-02,  1.17165752e-01, -1.44003093e-01,  1.98818773e-01,
   1.06139675e-01,  1.53724059e-01,  1.58186957e-01,  4.71620448e-02,
   1.71346255e-02, -5.49354665e-02,  2.16692667e-02,  3.26595875e-03,
   1.21877782e-01, -4.50016409e-02,  2.22631112e-01,  2.35125814e-02},
 {-3.24197561e-02, -3.61281708e-02, -2.32326016e-01, -1.94819525e-01,
   1.89271137e-01, -1.45150304e-01,  6.63725138e-02,  2.68224031e-02,
   1.85538888e-01,  5.56419827e-02, -1.85326874e-01, -6.44342527e-02,
   1.71449743e-02,  2.06610635e-01, -1.68383792e-01,  3.90827172e-02,
   6.91837594e-02,  5.81860989e-02,  8.58994573e-02, -1.49429619e-01,
  -1.11340858e-01, -6.44756034e-02, -3.04240752e-02,  1.30034864e-01,
   5.20112030e-02, -1.14454582e-01,  8.91212374e-02,  1.45977080e-01,
   8.16984922e-02, -1.23804055e-01,  3.32625955e-02,  1.50752380e-01,
   1.78089187e-01, -5.47811016e-02,  3.33373947e-03, -3.87300514e-02,
   8.93002283e-03, -7.39688575e-02,  7.59816868e-03, -3.93924043e-02,
   1.01840883e-01, -1.56605124e-01, -4.60240357e-02, -2.89617125e-02,
  -2.02747226e-01, -9.06971097e-02,  7.24787638e-02,  1.49129286e-01,
   1.06823221e-01, -1.57521144e-01,  5.27442805e-02,  8.89285700e-04,
   9.82638150e-02, -9.50919017e-02,  1.27468720e-01,  7.95107186e-02,
   1.31519288e-01,  1.29204258e-01,  3.86556499e-02, -9.59312171e-03,
  -1.42803669e-01,  4.29932661e-02,  1.18294414e-02,  5.04666828e-02},
 {-1.56711310e-01, -1.22718327e-01,  5.65224066e-02,  9.52727571e-02,
   1.48044854e-01, -4.93561178e-02,  9.17220786e-02, -2.06494421e-01,
   1.61246002e-01, -3.53506386e-01,  1.36488810e-01,  5.48130423e-02,
  -1.42560424e-02,  6.73355758e-02,  1.86968774e-01,  5.43958135e-02,
   7.34371468e-02, -3.84530388e-02, -1.36971295e-01,  1.30886540e-01,
   1.58107847e-01, -5.48898838e-02, -2.09109262e-01,  1.66091174e-01,
  -1.27898380e-01, -1.76395923e-01, -1.49029000e-02, -1.13297701e-01,
  -1.21268652e-01,  7.67307803e-02,  8.08536410e-02,  2.05743358e-01,
   2.14354992e-02, -8.23404565e-02,  7.27181882e-03, -1.15713216e-01,
  -3.80606726e-02, -1.56538665e-01,  6.93312585e-02,  1.10945739e-01,
  -1.33831888e-01, -4.75332409e-01,  2.51968950e-01, -5.82872108e-02,
   7.42202401e-02, -2.05080315e-01,  8.28175321e-02, -2.58513968e-02,
  -1.23248836e-02, -1.34099215e-01,  8.70695189e-02, -5.13256565e-02,
  -1.28991812e-01, -1.51836529e-01, -3.04024685e-02, -3.48229297e-02,
   2.30796129e-01,  1.64545342e-01,  2.21140832e-02,  7.57693220e-03,
   2.21856624e-01, -2.19538629e-01, -5.38741015e-02, -3.28261293e-02},
 {-1.00140087e-01,  8.02129880e-02,  1.12252876e-01, -2.46433094e-02,
  -3.91632825e-01,  9.05602612e-03, -3.40788886e-02,  1.52266294e-01,
   1.85604051e-01,  1.08208567e-01,  8.38254392e-02,  2.21970640e-02,
  -2.35912912e-02,  1.66248441e-01, -7.79088289e-02, -8.18342566e-02,
  -3.36455591e-02, -9.13800746e-02,  5.16266190e-02, -1.72906816e-01,
  -4.07570094e-01,  2.97117047e-02,  1.54775977e-01,  3.25397849e-02,
   2.66663313e-01,  9.75120068e-02,  1.25664771e-01, -1.00253232e-01,
   7.46713504e-02, -8.73034261e-03,  6.39933050e-02,  6.23728298e-02,
  -3.19730282e-01, -1.55078009e-01, -1.61824952e-04, -4.52657714e-02,
   4.76735011e-02,  5.32466918e-02,  9.08330902e-02, -1.42824128e-01,
   3.06711197e-01,  1.18195862e-01,  1.04377925e-01,  2.85785586e-01,
  -2.90455431e-01,  7.78424460e-03,  8.81815180e-02, -4.20407131e-02,
  -1.49374500e-01,  8.43096990e-03, -3.75784934e-02, -2.16199979e-01,
  -1.23499796e-01, -2.86673959e-02,  1.03108324e-01, -4.29504514e-02,
   9.97346938e-02,  4.14576121e-02, -2.66371015e-02, -3.58722284e-02,
  -1.21735424e-01,  9.96823236e-02,  6.65455312e-02,  9.13190022e-02},
 {-8.88037682e-03, -9.10537615e-02,  2.63387561e-01,  2.60861188e-01,
  -3.55944969e-02,  1.12133473e-01, -1.36250828e-03, -6.44579977e-02,
  -2.17970937e-01, -7.39505664e-02, -1.53242880e-02, -6.69346079e-02,
  -6.99007288e-02, -1.21259123e-01,  4.84676026e-02,  6.41955063e-02,
  -1.08425640e-01, -1.78711385e-01,  5.75721962e-03, -2.23994136e-01,
  -7.73347840e-02,  1.28450543e-01, -2.12419048e-01,  3.46701257e-02,
   4.47261371e-02,  5.38352393e-02, -1.96667150e-01, -9.64719504e-02,
  -1.03038415e-01, -2.22772434e-01, -2.61972602e-02, -4.35164608e-02,
  -1.78559553e-02,  1.44003266e-02,  2.21838951e-02, -1.67842638e-02,
   1.00161321e-01, -1.74986750e-01,  1.30683795e-01,  1.38210416e-01,
   9.22249109e-02, -1.47444904e-01, -7.26953894e-02,  5.77965863e-02,
  -2.26293668e-01, -1.02693833e-01, -1.29331499e-01, -1.66955194e-03,
   1.89432025e-01, -7.23546669e-02,  2.37733826e-01, -2.71015108e-01,
  -2.04779789e-01,  9.85036865e-02, -3.53772193e-02, -2.25070015e-01,
   3.40022147e-02,  1.17528893e-01,  2.79061329e-02,  1.73314780e-01,
   2.23665517e-02,  1.93143860e-01,  6.76096901e-02,  8.80774781e-02},
 { 2.11756706e-01,  6.07765391e-02,  5.79413734e-02, -4.30402532e-03,
   7.24416003e-02,  2.60898378e-03,  5.55422157e-03,  9.51765403e-02,
   4.17281576e-02,  2.39643995e-02,  1.31217092e-01, -3.10219522e-03,
   1.18328981e-01,  1.95365996e-04,  8.89784917e-02,  5.95694315e-03,
  -6.36184067e-02,  5.13864681e-02,  9.12966803e-02, -2.28309378e-01,
  -6.85975328e-02, -3.62033918e-02,  1.10110626e-01, -7.75260255e-02,
  -1.29062146e-01,  8.05353448e-02,  2.31952015e-02, -3.56638320e-02,
   7.15714619e-02, -1.53285220e-01,  1.21971287e-01,  7.72715285e-02,
  -1.47745475e-01, -1.07399501e-01,  7.53601268e-02, -2.33067814e-02,
  -1.64915368e-01,  1.14128545e-01, -1.19709343e-01, -1.41670913e-01,
   3.18920016e-02, -8.77340958e-02,  7.39584956e-03,  4.45223227e-02,
   1.45283967e-01,  4.29705121e-02, -7.53406212e-02, -3.97803932e-02,
  -2.16973633e-01,  3.53734821e-01,  8.88410807e-02,  7.20359981e-02,
   9.80722159e-02, -1.10999428e-01, -3.59729677e-02, -9.81689021e-02,
  -1.17115125e-01,  4.63778637e-02,  1.85181588e-01, -3.07985507e-02,
   4.86210436e-02, -9.19919647e-03, -1.41664833e-01,  1.55262783e-01},
 { 1.26744121e-01,  1.94049347e-02,  3.09600309e-02,  4.62170132e-02,
  -1.39674038e-01, -1.05363525e-01, -1.08941309e-01, -6.51813820e-02,
   4.16983925e-02,  8.04466903e-02,  2.10039690e-02,  3.14423591e-02,
  -1.43830376e-02,  5.17570786e-03,  1.02525473e-01, -2.28865724e-02,
  -2.59778425e-02, -1.12751745e-01, -9.91473496e-02,  4.97425348e-02,
   1.90597817e-01,  1.12348422e-01,  4.89424169e-02, -2.45585628e-02,
  -1.12404656e-02,  5.32154404e-02, -1.23709060e-01,  4.73085120e-02,
  -4.95108888e-02,  1.67961717e-02,  8.14118683e-02,  4.86105820e-03,
  -4.18904237e-02,  1.38324931e-01,  1.36748716e-01, -1.06183752e-01,
   3.23385522e-02,  1.08475834e-01, -1.79750502e-01,  6.32380620e-02,
  -2.03938395e-01,  3.48395929e-02,  6.70042038e-02,  1.64746806e-01,
   5.16930297e-02, -3.68501954e-02,  9.90722328e-02,  7.00595081e-02,
  -1.83713455e-02,  1.60957128e-02,  6.35211468e-02,  5.95998131e-02,
  -1.65743962e-01,  8.24981034e-02,  8.37642699e-02,  1.28295273e-01,
   1.20098114e-01, -9.73050818e-02, -6.77011982e-02,  2.06862435e-01,
  -2.63935048e-02,  1.67051014e-02,  1.18700959e-01, -7.10595325e-02},
 { 2.21360743e-01,  1.84085399e-01,  1.16626816e-02,  1.27633840e-01,
  -3.56293917e-02,  5.16731571e-03,  1.16321109e-02,  1.10426344e-01,
  -6.22657277e-02, -9.99489501e-02,  9.10888921e-05,  1.54472217e-01,
   7.60899112e-02,  1.01598181e-01,  8.40221718e-02, -1.84770394e-02,
  -1.70891896e-01,  5.30290380e-02,  4.11757492e-02,  4.11549695e-02,
  -8.83102010e-04, -3.33813648e-03, -2.44127754e-02,  8.97934437e-02,
  -3.90367925e-01,  2.61834320e-02, -7.08944201e-02,  8.28717425e-02,
  -1.58313345e-02, -1.00990266e-01, -2.58356750e-01, -1.35279566e-01,
   1.01064622e-01,  1.88173383e-01,  8.35494399e-02,  1.25344023e-01,
  -6.45205900e-02,  3.71573456e-02, -3.68682481e-02, -9.60512087e-02,
  -7.39456788e-02, -1.85149595e-01,  2.46913265e-02,  8.93701091e-02,
   3.74236293e-02,  9.14924368e-02,  8.23665187e-02, -6.45292476e-02,
  -4.02238108e-02,  3.25564034e-02, -3.63731869e-02, -3.01769990e-02,
   3.75428163e-02, -2.40459032e-02,  1.05150379e-02,  8.99832994e-02,
  -2.64876187e-02, -1.60704087e-02,  1.44063801e-01,  1.16300412e-01,
  -3.31701934e-01,  1.34309098e-01, -5.60585335e-02,  2.42035780e-02},
 {-5.10511287e-02, -1.02839060e-02, -1.67403948e-02,  7.17130750e-02,
  -3.09321899e-02, -5.05763367e-02,  4.94863875e-02,  2.93495487e-02,
   3.63675132e-02, -1.02649122e-01,  1.98491663e-01, -1.61501646e-01,
  -3.49689499e-02, -8.59130099e-02, -5.50951473e-02, -1.48044661e-01,
  -4.82474789e-02,  3.79644074e-02, -9.54494625e-02,  1.08368439e-03,
  -5.52880093e-02,  2.47626624e-04,  9.75390598e-02,  1.11390399e-02,
   2.63146637e-03, -1.70909375e-01,  9.45442393e-02, -8.15226734e-02,
  -1.51882693e-01, -1.53968394e-01, -6.49289042e-02, -1.72474608e-02,
   3.37499380e-02, -8.23808461e-02, -2.34848469e-01, -1.53918892e-01,
  -8.37877207e-03, -2.32868213e-02,  1.02256939e-01, -9.52014476e-02,
  -1.05664901e-01,  6.32508323e-02,  4.49336395e-02,  1.15204103e-01,
  -8.40527937e-02, -1.08008739e-02,  3.35413776e-02,  3.70576382e-02,
  -5.30591905e-02,  2.37597406e-01,  1.58979833e-01, -6.01266809e-02,
   3.26580077e-01,  1.45093054e-01,  6.76785931e-02, -2.15322860e-02,
  -3.15996967e-02,  1.49988472e-01, -2.70847045e-02,  1.86998084e-01,
  -9.08472314e-02, -4.22266647e-02, -4.20704577e-03,  1.59294218e-01},
 { 2.04221755e-02,  7.35153630e-02, -1.13136061e-01, -6.32960722e-02,
   1.68227151e-01,  1.04063027e-01, -2.47270595e-02, -2.42556587e-01,
   9.75183994e-02,  7.39205331e-02,  8.42948407e-02,  7.50035122e-02,
  -1.60975173e-01,  1.74801946e-01,  4.89850119e-02,  6.49990588e-02,
   4.78412658e-02,  1.37419075e-01,  1.53917283e-01, -1.26220673e-01,
   9.47796926e-02,  1.24596760e-01, -1.98033467e-01,  2.47224811e-02,
  -2.26961926e-01, -1.86771378e-01, -2.03868315e-01,  2.32695341e-01,
   1.25602543e-01, -4.13132049e-02,  5.50825521e-02,  2.47856408e-01,
   1.32602051e-01, -2.79368553e-02,  4.93758693e-02,  2.53137816e-02,
   2.04587147e-01,  1.73950613e-01, -2.94320397e-02,  6.05115630e-02,
  -2.76736263e-02,  1.73095047e-01, -1.40033007e-01,  1.44404843e-02,
  -1.99396715e-01, -5.44510828e-03,  9.79144648e-02,  1.37239590e-01,
   2.80658990e-01, -1.35083675e-01, -1.20101549e-01, -5.27485907e-02,
  -9.09148231e-02,  8.55054334e-02, -9.21217650e-02,  6.05614632e-02,
   7.19129592e-02, -2.47469917e-02,  1.97225288e-02,  9.27404463e-02,
  -1.88448485e-02, -3.79191376e-02, -8.92944261e-03, -9.62307006e-02},
 {-1.69578567e-01,  4.95254155e-03,  1.07899502e-01, -1.14710130e-01,
  -4.91774734e-03, -1.91850856e-01,  9.21915695e-02,  1.71724558e-02,
  -7.85578564e-02,  7.78959170e-02, -1.00003211e-02,  2.15075836e-01,
   6.52289167e-02,  2.56746888e-01,  1.54102579e-01,  1.53370947e-01,
   4.03940342e-02, -7.81170875e-02, -1.37889415e-01,  1.42112985e-01,
   1.49212286e-01, -7.76917115e-02, -3.02160203e-01, -1.56889334e-02,
   1.28112167e-01,  4.45348732e-02,  6.22244142e-02, -3.31681758e-01,
   1.01637587e-01, -3.54710668e-02, -4.44155075e-02,  1.80313408e-01,
  -8.57085222e-04, -4.10994925e-02, -1.08487278e-01,  4.88605238e-02,
   1.37597248e-01, -4.14593853e-02,  1.60737038e-01,  8.99658259e-03,
   1.63847610e-01, -8.33524764e-02, -8.78017321e-02, -2.60976255e-02,
  -4.37332019e-02,  4.54360209e-02,  3.03443577e-02,  1.23858033e-03,
  -1.26054019e-01, -2.21301675e-01,  1.53861977e-02, -3.89277493e-03,
  -2.12947708e-02, -8.42819437e-02,  2.01547399e-01, -1.43003121e-01,
   1.74132779e-01,  2.01066330e-01, -5.24339043e-02,  1.88611582e-01,
   5.96326180e-02,  1.56624559e-02, -3.79789099e-02,  6.10931180e-02},
 { 8.51932447e-03, -1.96574450e-01, -1.61174655e-01, -4.40223999e-02,
  -6.42487854e-02,  2.22898722e-02,  5.41444607e-02,  3.22065549e-03,
   1.37302369e-01,  6.01738319e-02, -9.43665206e-02,  6.04537800e-02,
   1.48871049e-01, -4.84172292e-02,  3.83696929e-02, -1.54051796e-01,
  -1.05795585e-01, -3.24161425e-02, -1.65799487e-04, -2.10547391e-02,
  -2.82600373e-01,  1.71578363e-01,  1.13089539e-01,  4.03763494e-03,
   1.06828131e-01, -1.15678050e-01,  1.93553135e-01, -4.87080663e-02,
  -1.20672271e-01, -2.36041024e-02,  6.85312822e-02,  6.12834357e-02,
  -1.86132550e-01, -7.36512542e-02, -6.84609683e-03,  1.64303817e-02,
   4.21159640e-02,  4.95636947e-02,  1.67449281e-01, -2.03019515e-01,
   9.64618772e-02,  2.06437051e-01,  6.65619820e-02,  3.72849731e-03,
  -2.53803253e-01,  6.66881204e-02, -1.37232363e-01, -1.81742057e-01,
   7.86301717e-02,  1.16001502e-01,  5.82997166e-02,  4.41580452e-02,
   2.21819088e-01, -8.48134607e-02,  1.06580012e-01,  1.67004719e-01,
  -3.36987935e-02, -3.13601904e-02, -2.54785240e-01,  1.56193757e-02,
   1.12703308e-01, -1.03560820e-01, -6.21554777e-02, -2.57414225e-02},
 { 2.07231387e-01, -1.79085538e-01,  7.92078972e-02,  1.37793347e-01,
  -1.59453098e-02, -2.08436344e-02, -3.81933898e-02,  1.44338891e-01,
  -5.94875440e-02,  1.08714178e-01, -1.77572414e-01, -7.24586546e-02,
  -8.68430652e-05, -1.11825630e-01,  8.27983096e-02,  6.61798287e-03,
  -5.77306636e-02, -1.72796864e-02,  3.85635383e-02, -8.10220987e-02,
  -1.45214349e-01,  2.15543117e-02, -3.33310694e-01,  1.30687669e-01,
  -2.44121645e-02,  1.58175215e-01, -1.39284566e-01,  1.09007217e-01,
   5.44893555e-02,  1.80800304e-01,  1.39458746e-01, -1.27866745e-01,
  -1.50380610e-02,  2.02196911e-02,  1.20399073e-01, -9.13044140e-02,
  -3.07182018e-02,  1.77353799e-01, -9.25233960e-02,  1.78712606e-01,
   3.62523645e-02, -6.95946068e-02,  1.75315991e-01,  1.32055983e-01,
  -1.09005384e-01,  7.27677345e-02, -7.84755722e-02, -1.60581768e-02,
  -5.34382509e-03, -2.21257970e-01,  8.74504447e-02,  2.74221361e-01,
  -5.29558584e-03,  3.06571741e-02,  9.47710872e-02, -1.13972969e-01,
  -5.11151701e-02, -2.61514429e-02,  2.30805397e-01, -9.84474178e-03,
   8.02977979e-02,  3.78955305e-02,  1.63610160e-01, -1.06328964e-01},
 { 9.35884863e-02, -5.77976294e-02, -1.68935470e-02,  2.10501671e-01,
   3.50081250e-02, -2.25686952e-01,  2.61536539e-02, -3.74987312e-02,
  -1.81337088e-01,  5.58479913e-02,  8.69476870e-02,  1.53163075e-01,
   4.39035520e-03,  8.51015523e-02,  9.29712802e-02,  9.72293392e-02,
   9.45443735e-02, -1.74910054e-02,  1.38624117e-01, -2.97517776e-02,
  -8.23483616e-02, -1.59876361e-01, -4.92774025e-02, -1.48341641e-01,
  -1.47887856e-01, -1.46452382e-01, -1.46158207e-02, -8.73206928e-02,
  -2.95059472e-01,  5.40247560e-02,  3.79587598e-02,  8.40945318e-02,
  -2.01043099e-01, -1.24607347e-01,  2.81894431e-02,  1.72251970e-01,
  -1.10667840e-01,  1.03361018e-01, -2.08854936e-02, -1.08816316e-02,
   1.54660299e-01, -1.09668940e-01,  1.04026936e-01,  1.21725034e-02,
  -3.62715572e-02, -3.85904983e-02, -1.88783333e-01,  1.99116036e-01,
  -9.41295996e-02, -5.91808977e-03, -1.50456831e-01,  2.21969094e-03,
   1.31838145e-02, -4.08378318e-02, -1.52128488e-01, -3.98302302e-02,
  -1.48393184e-01,  1.01390928e-02,  2.46941537e-01,  6.67013973e-02,
  -3.05166878e-02, -1.08013943e-01, -3.13593447e-02,  6.75896853e-02},
 { 2.38828687e-03, -2.71304529e-02,  4.13825959e-02,  5.42390347e-02,
   6.40051439e-02,  1.00342982e-01, -8.84096250e-02, -7.29764551e-02,
   1.86227858e-01, -4.99508716e-02,  2.95023154e-03,  4.66610380e-02,
   6.54266849e-02,  2.31378619e-02,  8.69974270e-02,  4.97898436e-04,
   9.08300951e-02, -7.95681551e-02, -2.84243152e-02, -1.28708914e-01,
   9.21532735e-02,  5.45182675e-02,  1.48237586e-01, -1.01668045e-01,
  -6.90776557e-02, -9.39425007e-02, -5.77467009e-02, -1.94925517e-02,
   7.81650469e-02,  6.76376149e-02,  1.28878862e-01, -7.64591023e-02,
   5.39039634e-02,  1.12803914e-01,  9.25948918e-02, -6.58180490e-02,
  -7.64547810e-02,  5.88149726e-02, -1.51960239e-01,  1.08752236e-01,
   3.05361208e-02,  2.89886519e-02,  7.58891702e-02,  1.68868124e-01,
   2.18810603e-01, -1.61588818e-01,  7.62607530e-02,  1.31345391e-01,
   6.53573871e-02,  1.71238348e-01, -3.17231901e-02, -7.80859590e-02,
  -6.19558990e-02, -1.67278200e-01,  9.63705406e-02, -4.36332747e-02,
   1.45384029e-01,  1.68465734e-01, -3.31193171e-02,  6.15008771e-02,
   1.56178817e-01, -1.52435824e-01, -5.81937134e-02,  1.27220452e-01},
 { 1.11665606e-01,  1.60668924e-01,  3.68661769e-02,  1.88065186e-01,
  -3.43267955e-02, -4.31679934e-02,  1.44948000e-02,  2.24251077e-02,
   7.76659623e-02, -9.21528116e-02,  3.49818077e-03,  2.59690434e-01,
   5.91293350e-02,  1.44923374e-01, -2.12960467e-02,  6.72564059e-02,
  -4.85618472e-01, -2.55486280e-01,  1.59912869e-01, -7.09274560e-02,
   7.70944729e-02,  2.09236909e-02,  4.55553532e-02,  6.51280731e-02,
  -4.15743113e-01, -1.20029598e-01, -8.15207288e-02, -1.32664638e-02,
  -1.93656325e-01, -8.33345875e-02, -1.85817838e-01, -1.57904401e-01,
   3.09280176e-02,  2.98159063e-01, -1.06459018e-02, -1.64123029e-01,
  -7.84741342e-02,  2.76112743e-02, -2.09018774e-02,  1.81721017e-01,
   2.63352785e-02, -1.32164717e-01, -2.95041613e-02,  5.19804396e-02,
  -4.75426726e-02, -8.34438354e-02,  1.05280705e-01,  2.66847815e-02,
  -9.12550241e-02, -1.64761513e-01, -1.58566877e-01,  2.87370961e-02,
   9.95361805e-02, -9.18456763e-02,  3.33802626e-02,  1.39120370e-01,
  -5.68006597e-02, -2.98255030e-02,  2.12852471e-02, -9.62423310e-02,
  -4.63832095e-02, -1.56880274e-01, -1.19736485e-01,  1.19965412e-01},
 {-4.30464596e-02, -1.39410019e-01, -9.63007435e-02,  1.10328294e-01,
